{"learner":{"attributes":{"scikit_learn":"{\"_estimator_type\": \"regressor\"}"},"feature_names":["Unnamed: 0","Location","Temp_2m","RelHum_2m","DP_2m","WS_10m","WS_100m","WD_10m","WD_100m","WG_10m","hour","day","month","weekday","lag_1h","lag_24h","rolling_24h","rolling_168h","wind_energy","wind_direction_effect","sin_hour","cos_hour"],"feature_types":["int","int","float","float","float","float","float","float","float","float","int","int","int","int","float","float","float","float","float","float","float","float"],"gradient_booster":{"model":{"cats":{"enc":[],"feature_segments":[],"sorted_idx":[]},"gbtree_model_param":{"num_parallel_tree":"1","num_trees":"500"},"iteration_indptr":[0,1,2,3,4,5,6,7,8,9,10,11,12,13,14,15,16,17,18,19,20,21,22,23,24,25,26,27,28,29,30,31,32,33,34,35,36,37,38,39,40,41,42,43,44,45,46,47,48,49,50,51,52,53,54,55,56,57,58,59,60,61,62,63,64,65,66,67,68,69,70,71,72,73,74,75,76,77,78,79,80,81,82,83,84,85,86,87,88,89,90,91,92,93,94,95,96,97,98,99,100,101,102,103,104,105,106,107,108,109,110,111,112,113,114,115,116,117,118,119,120,121,122,123,124,125,126,127,128,129,130,131,132,133,134,135,136,137,138,139,140,141,142,143,144,145,146,147,148,149,150,151,152,153,154,155,156,157,158,159,160,161,162,163,164,165,166,167,168,169,170,171,172,173,174,175,176,177,178,179,180,181,182,183,184,185,186,187,188,189,190,191,192,193,194,195,196,197,198,199,200,201,202,203,204,205,206,207,208,209,210,211,212,213,214,215,216,217,218,219,220,221,222,223,224,225,226,227,228,229,230,231,232,233,234,235,236,237,238,239,240,241,242,243,244,245,246,247,248,249,250,251,252,253,254,255,256,257,258,259,260,261,262,263,264,265,266,267,268,269,270,271,272,273,274,275,276,277,278,279,280,281,282,283,284,285,286,287,288,289,290,291,292,293,294,295,296,297,298,299,300,301,302,303,304,305,306,307,308,309,310,311,312,313,314,315,316,317,318,319,320,321,322,323,324,325,326,327,328,329,330,331,332,333,334,335,336,337,338,339,340,341,342,343,344,345,346,347,348,349,350,351,352,353,354,355,356,357,358,359,360,361,362,363,364,365,366,367,368,369,370,371,372,373,374,375,376,377,378,379,380,381,382,383,384,385,386,387,388,389,390,391,392,393,394,395,396,397,398,399,400,401,402,403,404,405,406,407,408,409,410,411,412,413,414,415,416,417,418,419,420,421,422,423,424,425,426,427,428,429,430,431,432,433,434,435,436,437,438,439,440,441,442,443,444,445,446,447,448,449,450,451,452,453,454,455,456,457,458,459,460,461,462,463,464,465,466,467,468,469,470,471,472,473,474,475,476,477,478,479,480,481,482,483,484,485,486,487,488,489,490,491,492,493,494,495,496,497,498,499,500],"tree_info":[0,0,0,0,0,0,0,0,0,0,0,0,0,0,0,0,0,0,0,0,0,0,0,0,0,0,0,0,0,0,0,0,0,0,0,0,0,0,0,0,0,0,0,0,0,0,0,0,0,0,0,0,0,0,0,0,0,0,0,0,0,0,0,0,0,0,0,0,0,0,0,0,0,0,0,0,0,0,0,0,0,0,0,0,0,0,0,0,0,0,0,0,0,0,0,0,0,0,0,0,0,0,0,0,0,0,0,0,0,0,0,0,0,0,0,0,0,0,0,0,0,0,0,0,0,0,0,0,0,0,0,0,0,0,0,0,0,0,0,0,0,0,0,0,0,0,0,0,0,0,0,0,0,0,0,0,0,0,0,0,0,0,0,0,0,0,0,0,0,0,0,0,0,0,0,0,0,0,0,0,0,0,0,0,0,0,0,0,0,0,0,0,0,0,0,0,0,0,0,0,0,0,0,0,0,0,0,0,0,0,0,0,0,0,0,0,0,0,0,0,0,0,0,0,0,0,0,0,0,0,0,0,0,0,0,0,0,0,0,0,0,0,0,0,0,0,0,0,0,0,0,0,0,0,0,0,0,0,0,0,0,0,0,0,0,0,0,0,0,0,0,0,0,0,0,0,0,0,0,0,0,0,0,0,0,0,0,0,0,0,0,0,0,0,0,0,0,0,0,0,0,0,0,0,0,0,0,0,0,0,0,0,0,0,0,0,0,0,0,0,0,0,0,0,0,0,0,0,0,0,0,0,0,0,0,0,0,0,0,0,0,0,0,0,0,0,0,0,0,0,0,0,0,0,0,0,0,0,0,0,0,0,0,0,0,0,0,0,0,0,0,0,0,0,0,0,0,0,0,0,0,0,0,0,0,0,0,0,0,0,0,0,0,0,0,0,0,0,0,0,0,0,0,0,0,0,0,0,0,0,0,0,0,0,0,0,0,0,0,0,0,0,0,0,0,0,0,0,0,0,0,0,0,0,0,0,0,0,0,0,0,0,0,0,0,0,0,0,0,0,0,0,0,0,0,0,0,0,0,0,0,0,0,0,0,0,0,0,0,0,0,0,0,0,0,0,0,0,0,0,0,0,0,0,0,0,0,0,0,0,0,0,0,0,0,0,0,0,0,0],"trees":[{"base_weights":[-1.9459327E-5,-1.4096577E-1,1.8518518E-1,-1.9444332E-1,-6.0404446E-2,3.6285356E-1,1.4049004E-1,-1.721168E-1,-2.5601953E-1,5.572317E-2,-1.0591893E-1,2.6956707E-1,4.333273E-1,5.096059E-2,2.553505E-1,-2.0169075E-1,-1.4298375E-1,-2.8583017E-1,-2.2188266E-1,1.9001437E-2,1.2954438E-1,-1.4029802E-1,-8.071572E-2,2.9547095E-1,1.8685582E-1,2.6062423E-1,4.4157916E-1,1.0360572E-2,1.076007E-1,1.949345E-1,3.028589E-1,-2.1643214E-1,-1.706491E-1,-1.0621621E-1,-1.6363358E-1,-3.0125114E-1,-2.751947E-1,-2.4535051E-1,-2.0445187E-1,-3.3739846E-2,5.94537E-2,9.4288856E-2,2.0635553E-1,-1.6567646E-1,-1.18529014E-1,-1.1279965E-1,-4.903026E-2,1.7949493E-1,3.078639E-1,7.708863E-2,2.1417718E-1,5.4923378E-2,2.890466E-1,4.0933928E-1,4.7728226E-1,-4.609996E-2,3.7607577E-2,3.7541654E-2,1.4413127E-1,1.3789926E-1,2.4827091E-1,2.5608027E-1,3.698956E-1,-1.2226032E-2,-1.0254106E-2,-6.4695813E-3,-9.904053E-3,-7.1762367E-3,-2.8616048E-3,-9.318197E-3,-7.1128174E-3,-1.5237154E-2,-1.3366051E-2,-1.4054558E-2,-1.2545511E-2,-1.2931714E-2,-1.1241696E-2,-1.1655641E-2,-9.420074E-3,-3.970767E-3,-5.9457595E-4,1.9205887E-3,6.7020217E-3,2.6271355E-3,6.7977086E-3,5.3607556E-3,1.1418506E-2,-7.5356998E-3,-9.61393E-3,-7.1135657E-3,-5.3280587E-3,-7.5253197E-3,-4.9085426E-3,-5.399603E-3,-1.3290517E-3,6.729481E-3,1.201887E-2,1.4274547E-2,1.7349467E-2,1.5648649E-3,1.0741251E-2,7.0234486E-3,1.2026936E-2,5.0725876E-3,-8.039308E-3,2.1995816E-2,1.2967658E-2,1.9639641E-2,2.2702774E-2,2.4309725E-2,1.3306037E-2,-7.3445885E-4,-4.1256403E-3,4.403045E-3,-6.666401E-4,4.8621423E-3,5.19774E-4,1.0049669E-2,4.350853E-3,3.1385333E-3,7.958695E-3,8.550902E-3,1.328339E-2,1.4103994E-2,9.03356E-3,1.9369006E-2,1.4118356E-2],"categories":[],"categories_nodes":[],"categories_segments":[],"categories_sizes":[],"default_left":[0,0,0,0,0,0,0,0,0,0,0,0,0,0,0,0,0,0,0,0,0,0,0,0,0,0,0,0,0,0,0,0,0,0,0,0,0,0,0,0,0,0,0,0,0,0,0,0,0,0,0,0,0,0,0,0,0,0,0,0,0,0,0,0,0,0,0,0,0,0,0,0,0,0,0,0,0,0,0,0,0,0,0,0,0,0,0,0,0,0,0,0,0,0,0,0,0,0,0,0,0,0,0,0,0,0,0,0,0,0,0,0,0,0,0,0,0,0,0,0,0,0,0,0,0,0,0],"id":0,"left_children":[1,3,5,7,9,11,13,15,17,19,21,23,25,27,29,31,33,35,37,39,41,43,45,47,49,51,53,55,57,59,61,63,65,67,69,71,73,75,77,79,81,83,85,87,89,91,93,95,97,99,101,103,105,107,109,111,113,115,117,119,121,123,125,-1,-1,-1,-1,-1,-1,-1,-1,-1,-1,-1,-1,-1,-1,-1,-1,-1,-1,-1,-1,-1,-1,-1,-1,-1,-1,-1,-1,-1,-1,-1,-1,-1,-1,-1,-1,-1,-1,-1,-1,-1,-1,-1,-1,-1,-1,-1,-1,-1,-1,-1,-1,-1,-1,-1,-1,-1,-1,-1,-1,-1,-1,-1,-1],"loss_changes":[2.3328284E3,2.1861761E2,3.0662708E2,4.188684E1,1.0702649E2,5.0912415E1,3.1732214E2,1.9259277E1,8.193787E0,1.54547615E1,1.2593109E1,7.1073E0,6.18396E0,3.9880665E1,3.8738403E1,5.045624E0,8.547653E0,6.269531E-1,1.4989624E0,8.128523E0,5.1095276E0,3.3791275E0,8.529793E0,3.6011963E0,2.382681E0,1.1768103E0,4.6586304E0,1.5543989E1,1.8526459E1,1.8075134E1,2.3628235E1,2.3495178E0,4.027252E0,7.411541E0,3.4827423E0,1.2658691E-1,2.9788208E-1,3.8036346E-1,9.584656E-1,1.6496369E0,3.3785825E0,2.254033E0,1.2741222E0,1.1006393E0,9.267769E-1,2.2859688E0,5.5908594E0,6.456666E-1,1.9116211E0,1.0087249E0,1.2097721E0,2.77264E-1,6.8779755E-1,1.4664307E0,3.625061E0,3.7606006E0,1.751648E1,4.023084E0,1.5438011E1,4.59161E0,4.0872345E0,8.691406E0,4.645508E0,0E0,0E0,0E0,0E0,0E0,0E0,0E0,0E0,0E0,0E0,0E0,0E0,0E0,0E0,0E0,0E0,0E0,0E0,0E0,0E0,0E0,0E0,0E0,0E0,0E0,0E0,0E0,0E0,0E0,0E0,0E0,0E0,0E0,0E0,0E0,0E0,0E0,0E0,0E0,0E0,0E0,0E0,0E0,0E0,0E0,0E0,0E0,0E0,0E0,0E0,0E0,0E0,0E0,0E0,0E0,0E0,0E0,0E0,0E0,0E0,0E0,0E0,0E0,0E0],"parents":[2147483647,0,0,1,1,2,2,3,3,4,4,5,5,6,6,7,7,8,8,9,9,10,10,11,11,12,12,13,13,14,14,15,15,16,16,17,17,18,18,19,19,20,20,21,21,22,22,23,23,24,24,25,25,26,26,27,27,28,28,29,29,30,30,31,31,32,32,33,33,34,34,35,35,36,36,37,37,38,38,39,39,40,40,41,41,42,42,43,43,44,44,45,45,46,46,47,47,48,48,49,49,50,50,51,51,52,52,53,53,54,54,55,55,56,56,57,57,58,58,59,59,60,60,61,61,62,62],"right_children":[2,4,6,8,10,12,14,16,18,20,22,24,26,28,30,32,34,36,38,40,42,44,46,48,50,52,54,56,58,60,62,64,66,68,70,72,74,76,78,80,82,84,86,88,90,92,94,96,98,100,102,104,106,108,110,112,114,116,118,120,122,124,126,-1,-1,-1,-1,-1,-1,-1,-1,-1,-1,-1,-1,-1,-1,-1,-1,-1,-1,-1,-1,-1,-1,-1,-1,-1,-1,-1,-1,-1,-1,-1,-1,-1,-1,-1,-1,-1,-1,-1,-1,-1,-1,-1,-1,-1,-1,-1,-1,-1,-1,-1,-1,-1,-1,-1,-1,-1,-1,-1,-1,-1,-1,-1,-1],"split_conditions":[7.2977996E0,5.5477996E0,2E0,4E0,2E0,8.637799E0,9.717799E0,2.6076254E-1,4.0677996E0,6.6577992E0,2.711066E-1,1.9E1,2.4858755E-1,8.557799E0,3E0,4.5377994E0,2E0,2.6177995E0,2.356191E-1,2.8027743E-1,4.0265602E-1,6.3077993E0,6.4577994E0,2.2155899E-1,3.7453892E0,1.807822E-1,1.0087799E1,3E0,3E0,1.1457799E1,1.1457799E1,1.3874231E-1,2E0,4.467799E0,3E0,5.523959E-1,3.6389053E-1,4.9777994E0,4.7077994E0,2.9653893E0,4.5773005E-1,1.2246469E-16,-7.0710677E-1,4E0,3E0,3E0,3E0,-5.6203234E-1,8.1078E0,4.2888314E-1,2.900941E-1,9.466421E1,9.305731E1,5.1494586E-1,9.252175E0,7.766421E1,4E0,6.666421E1,4E0,2.5474352E-1,2.8886554E-1,5.8279602E1,6.3779602E1,-1.2226032E-2,-1.0254106E-2,-6.4695813E-3,-9.904053E-3,-7.1762367E-3,-2.8616048E-3,-9.318197E-3,-7.1128174E-3,-1.5237154E-2,-1.3366051E-2,-1.4054558E-2,-1.2545511E-2,-1.2931714E-2,-1.1241696E-2,-1.1655641E-2,-9.420074E-3,-3.970767E-3,-5.9457595E-4,1.9205887E-3,6.7020217E-3,2.6271355E-3,6.7977086E-3,5.3607556E-3,1.1418506E-2,-7.5356998E-3,-9.61393E-3,-7.1135657E-3,-5.3280587E-3,-7.5253197E-3,-4.9085426E-3,-5.399603E-3,-1.3290517E-3,6.729481E-3,1.201887E-2,1.4274547E-2,1.7349467E-2,1.5648649E-3,1.0741251E-2,7.0234486E-3,1.2026936E-2,5.0725876E-3,-8.039308E-3,2.1995816E-2,1.2967658E-2,1.9639641E-2,2.2702774E-2,2.4309725E-2,1.3306037E-2,-7.3445885E-4,-4.1256403E-3,4.403045E-3,-6.666401E-4,4.8621423E-3,5.19774E-4,1.0049669E-2,4.350853E-3,3.1385333E-3,7.958695E-3,8.550902E-3,1.328339E-2,1.4103994E-2,9.03356E-3,1.9369006E-2,1.4118356E-2],"split_indices":[6,6,1,1,1,6,6,17,6,6,17,10,17,6,1,6,1,6,17,17,17,6,6,17,5,17,6,1,1,6,6,17,1,6,1,14,17,6,6,5,17,20,20,1,1,1,1,19,6,17,17,3,8,17,19,3,1,3,1,17,17,2,2,0,0,0,0,0,0,0,0,0,0,0,0,0,0,0,0,0,0,0,0,0,0,0,0,0,0,0,0,0,0,0,0,0,0,0,0,0,0,0,0,0,0,0,0,0,0,0,0,0,0,0,0,0,0,0,0,0,0,0,0,0,0,0,0],"split_type":[0,0,0,0,0,0,0,0,0,0,0,0,0,0,0,0,0,0,0,0,0,0,0,0,0,0,0,0,0,0,0,0,0,0,0,0,0,0,0,0,0,0,0,0,0,0,0,0,0,0,0,0,0,0,0,0,0,0,0,0,0,0,0,0,0,0,0,0,0,0,0,0,0,0,0,0,0,0,0,0,0,0,0,0,0,0,0,0,0,0,0,0,0,0,0,0,0,0,0,0,0,0,0,0,0,0,0,0,0,0,0,0,0,0,0,0,0,0,0,0,0,0,0,0,0,0,0],"sum_hessian":[8.9365E4,5.0746E4,3.8619E4,3.0499E4,2.0247E4,7.761E3,3.0858E4,2.2386E4,8.113E3,5.701E3,1.4546E4,3.342E3,4.419E3,1.7342E4,1.3516E4,1.1106E4,1.128E4,4.327E3,3.786E3,3.808E3,1.893E3,6.151E3,8.395E3,2.543E3,7.99E2,2.03E2,4.216E3,1.0102E4,7.24E3,5.952E3,7.564E3,7.526E3,3.58E3,4.059E3,7.221E3,1.755E3,2.572E3,1.608E3,2.178E3,1.653E3,2.155E3,1.299E3,5.94E2,2.837E3,3.314E3,4.17E3,4.225E3,2.47E2,2.296E3,1.6E2,6.39E2,2.5E1,1.78E2,2.222E3,1.994E3,3.288E3,6.814E3,2.482E3,4.758E3,2.878E3,3.074E3,4.458E3,3.106E3,2.16E3,5.366E3,1.432E3,2.148E3,2.303E3,1.756E3,3.496E3,3.725E3,1.584E3,1.71E2,2.061E3,5.11E2,9.69E2,6.39E2,7.77E2,1.401E3,5.34E2,1.119E3,1.682E3,4.73E2,6.5E2,6.49E2,1.09E2,4.85E2,1.82E3,1.017E3,1.107E3,2.207E3,1.163E3,3.007E3,1.164E3,3.061E3,1.44E2,1.03E2,1.466E3,8.3E2,1.21E2,3.9E1,1.7E2,4.69E2,2.1E1,4E0,2.7E1,1.51E2,1.629E3,5.93E2,1.912E3,8.2E1,1.766E3,1.522E3,3.423E3,3.391E3,7.75E2,1.707E3,2.383E3,2.375E3,6.36E2,2.242E3,5.67E2,2.507E3,3.313E3,1.145E3,2.586E3,5.2E2],"tree_param":{"num_deleted":"0","num_feature":"22","num_nodes":"127","size_leaf_vector":"1"}},{"base_weights":[1.19321005E-4,-1.2827149E-1,1.8476482E-1,-1.8190464E-1,-4.628401E-2,7.854834E-2,2.7182567E-1,-2.2151904E-1,-1.3561516E-1,-1.09907806E-1,1.6385296E-2,-2.1167077E-2,1.2431158E-1,2.1364464E-1,3.4564385E-1,-2.482008E-1,-2.0096071E-1,-1.531233E-1,-6.799294E-2,-1.6406941E-1,-8.125722E-2,-8.384511E-3,9.531781E-2,-1.3085443E-1,1.909821E-3,8.475333E-2,2.1714835E-1,1.8980546E-1,3.0370417E-1,3.15968E-1,4.0769792E-1,-2.672232E-1,-2.360309E-1,-2.167418E-1,-1.7301117E-1,-1.7505418E-1,-1.2339058E-1,-8.842841E-2,-8.103634E-3,-2.0173365E-1,-1.4503478E-1,-1.0069607E-1,-5.368361E-2,-3.720872E-2,2.311552E-2,5.2712057E-2,1.369458E-1,-1.9366422E-1,-1.0406837E-1,-3.3156585E-2,5.3414393E-2,1.147291E-1,4.4381484E-2,1.8466692E-1,2.6617858E-1,1.3970833E-1,2.2021835E-1,3.446547E-1,2.594756E-1,2.6518863E-1,3.333175E-1,4.3152887E-1,3.463396E-1,-1.3640392E-2,-1.2155238E-2,-1.2214097E-2,-1.0761473E-2,-1.0578266E-2,-1.2206546E-2,-8.116286E-3,-9.7259E-3,-9.278278E-3,-7.7136816E-3,-5.7296134E-3,-8.362735E-3,-5.4949108E-3,-2.1289568E-3,7.538183E-3,-1.0114037E-3,-1.2023485E-2,-9.655875E-3,-5.7750633E-3,-8.148772E-3,-4.583889E-3,-7.751312E-3,-1.7586978E-3,-4.5382106E-3,-1.271517E-3,-4.1861036E-3,2.769928E-3,-1.0138847E-3,1.2592556E-3,5.2109743E-3,7.522137E-3,1.6222906E-3,-7.5115273E-3,-1.0838212E-2,-4.338594E-3,-7.089445E-3,-3.451295E-4,-3.216436E-3,4.4702417E-3,-8.581463E-5,3.7978978E-3,7.85701E-3,-2.4412072E-4,3.4540433E-3,1.0779147E-2,6.3776383E-3,1.5443588E-2,1.1354213E-2,5.0176093E-3,9.135208E-3,1.3742226E-2,1.0083172E-2,1.5210608E-2,1.9429645E-2,1.131755E-2,1.5360767E-2,1.5701426E-2,1.1774886E-2,1.8580487E-2,1.5259439E-2,2.0232722E-2,2.4048487E-2,1.6141757E-2,1.9704359E-2],"categories":[],"categories_nodes":[],"categories_segments":[],"categories_sizes":[],"default_left":[0,0,0,0,0,0,0,0,0,0,0,0,0,0,0,0,0,0,0,0,0,0,0,0,0,0,0,0,0,0,0,0,0,0,0,0,0,0,0,0,0,0,0,0,0,0,0,0,0,0,0,0,0,0,0,0,0,0,0,0,0,0,0,0,0,0,0,0,0,0,0,0,0,0,0,0,0,0,0,0,0,0,0,0,0,0,0,0,0,0,0,0,0,0,0,0,0,0,0,0,0,0,0,0,0,0,0,0,0,0,0,0,0,0,0,0,0,0,0,0,0,0,0,0,0,0,0],"id":1,"left_children":[1,3,5,7,9,11,13,15,17,19,21,23,25,27,29,31,33,35,37,39,41,43,45,47,49,51,53,55,57,59,61,63,65,67,69,71,73,75,77,79,81,83,85,87,89,91,93,95,97,99,101,103,105,107,109,111,113,115,117,119,121,123,125,-1,-1,-1,-1,-1,-1,-1,-1,-1,-1,-1,-1,-1,-1,-1,-1,-1,-1,-1,-1,-1,-1,-1,-1,-1,-1,-1,-1,-1,-1,-1,-1,-1,-1,-1,-1,-1,-1,-1,-1,-1,-1,-1,-1,-1,-1,-1,-1,-1,-1,-1,-1,-1,-1,-1,-1,-1,-1,-1,-1,-1,-1,-1,-1],"loss_changes":[2.1279922E3,2.3281256E2,3.4042712E2,5.8664062E1,8.3494995E1,7.568498E1,8.681885E1,9.410095E0,1.746814E1,1.6111046E1,2.0627558E1,1.3208279E1,4.1730118E1,2.4239319E1,1.629004E1,1.6734314E0,4.2612E0,7.624481E0,3.7173882E0,2.5473633E0,3.638317E0,7.2927146E0,4.4622326E0,1.5058079E0,7.7895894E0,9.64365E0,5.3592377E0,1.3606964E1,4.197647E0,5.229309E0,4.0632324E0,3.2684326E-1,7.340088E-1,8.309326E-1,7.7780914E-1,1.4449158E0,1.9031601E0,2.224928E0,1.4939106E0,3.554001E-1,1.2480507E0,1.9387894E0,1.9275064E0,2.2955618E0,5.3776417E0,1.7654243E0,1.7920074E0,2.3833084E-1,4.039483E-1,2.0995524E0,3.4665103E0,7.5108643E0,4.1362E0,3.585205E0,2.184761E0,5.707901E0,5.5882263E0,2.0603638E0,1.7363739E0,2.1621017E0,4.72818E0,2.5570984E0,7.829437E-1,0E0,0E0,0E0,0E0,0E0,0E0,0E0,0E0,0E0,0E0,0E0,0E0,0E0,0E0,0E0,0E0,0E0,0E0,0E0,0E0,0E0,0E0,0E0,0E0,0E0,0E0,0E0,0E0,0E0,0E0,0E0,0E0,0E0,0E0,0E0,0E0,0E0,0E0,0E0,0E0,0E0,0E0,0E0,0E0,0E0,0E0,0E0,0E0,0E0,0E0,0E0,0E0,0E0,0E0,0E0,0E0,0E0,0E0,0E0,0E0,0E0,0E0,0E0,0E0],"parents":[2147483647,0,0,1,1,2,2,3,3,4,4,5,5,6,6,7,7,8,8,9,9,10,10,11,11,12,12,13,13,14,14,15,15,16,16,17,17,18,18,19,19,20,20,21,21,22,22,23,23,24,24,25,25,26,26,27,27,28,28,29,29,30,30,31,31,32,32,33,33,34,34,35,35,36,36,37,37,38,38,39,39,40,40,41,41,42,42,43,43,44,44,45,45,46,46,47,47,48,48,49,49,50,50,51,51,52,52,53,53,54,54,55,55,56,56,57,57,58,58,59,59,60,60,61,61,62,62],"right_children":[2,4,6,8,10,12,14,16,18,20,22,24,26,28,30,32,34,36,38,40,42,44,46,48,50,52,54,56,58,60,62,64,66,68,70,72,74,76,78,80,82,84,86,88,90,92,94,96,98,100,102,104,106,108,110,112,114,116,118,120,122,124,126,-1,-1,-1,-1,-1,-1,-1,-1,-1,-1,-1,-1,-1,-1,-1,-1,-1,-1,-1,-1,-1,-1,-1,-1,-1,-1,-1,-1,-1,-1,-1,-1,-1,-1,-1,-1,-1,-1,-1,-1,-1,-1,-1,-1,-1,-1,-1,-1,-1,-1,-1,-1,-1,-1,-1,-1,-1,-1,-1,-1,-1,-1,-1,-1],"split_conditions":[7.4777994E0,5.6677995E0,3.9621672E-1,2.3159172E-1,2.875084E-1,2.5070837E-1,1.1936515E1,1.3047922E-1,4.1590422E-1,1.6902505E-1,4.6320838E-1,1.3930422E-1,1.1736515E1,6.0095423E-1,6.178959E-1,8.087089E-2,4.5677996E0,4.4977994E0,3.8972595E1,1.1169172E-1,6.6577992E0,6.6577992E0,6.717799E0,9.872922E-2,8.9878E0,3.1409588E-1,1.3536515E1,8.936515E0,2.4605168E2,1.0087799E1,3.030517E2,4.7077994E0,4.5677996E0,3.658959E-1,2.3029588E-1,3.3006254E-1,5.836959E-1,4.9777994E0,4E0,6.590005E-2,8.199589E-2,4.367959E-1,2.6859587E-1,5.995959E-1,3.918959E-1,3.3472595E1,8.493959E-1,7.366421E1,8.566421E1,1.7319588E-1,7.966421E1,9.336515E0,3.1660423E-1,4.6772594E1,1.9959588E-1,3.5279602E1,5.4253893E0,6.537834E-1,6.7185366E-1,6.275389E0,6.766421E1,7.217501E-1,7.217501E-1,-1.3640392E-2,-1.2155238E-2,-1.2214097E-2,-1.0761473E-2,-1.0578266E-2,-1.2206546E-2,-8.116286E-3,-9.7259E-3,-9.278278E-3,-7.7136816E-3,-5.7296134E-3,-8.362735E-3,-5.4949108E-3,-2.1289568E-3,7.538183E-3,-1.0114037E-3,-1.2023485E-2,-9.655875E-3,-5.7750633E-3,-8.148772E-3,-4.583889E-3,-7.751312E-3,-1.7586978E-3,-4.5382106E-3,-1.271517E-3,-4.1861036E-3,2.769928E-3,-1.0138847E-3,1.2592556E-3,5.2109743E-3,7.522137E-3,1.6222906E-3,-7.5115273E-3,-1.0838212E-2,-4.338594E-3,-7.089445E-3,-3.451295E-4,-3.216436E-3,4.4702417E-3,-8.581463E-5,3.7978978E-3,7.85701E-3,-2.4412072E-4,3.4540433E-3,1.0779147E-2,6.3776383E-3,1.5443588E-2,1.1354213E-2,5.0176093E-3,9.135208E-3,1.3742226E-2,1.0083172E-2,1.5210608E-2,1.9429645E-2,1.131755E-2,1.5360767E-2,1.5701426E-2,1.1774886E-2,1.8580487E-2,1.5259439E-2,2.0232722E-2,2.4048487E-2,1.6141757E-2,1.9704359E-2],"split_indices":[6,6,16,16,16,16,9,16,16,16,16,16,9,16,16,16,6,6,4,16,6,6,6,16,6,14,9,9,7,6,7,6,6,14,14,16,14,6,12,16,14,14,14,14,14,4,14,3,3,14,3,9,16,4,14,2,5,16,16,5,3,16,16,0,0,0,0,0,0,0,0,0,0,0,0,0,0,0,0,0,0,0,0,0,0,0,0,0,0,0,0,0,0,0,0,0,0,0,0,0,0,0,0,0,0,0,0,0,0,0,0,0,0,0,0,0,0,0,0,0,0,0,0,0,0,0,0],"split_type":[0,0,0,0,0,0,0,0,0,0,0,0,0,0,0,0,0,0,0,0,0,0,0,0,0,0,0,0,0,0,0,0,0,0,0,0,0,0,0,0,0,0,0,0,0,0,0,0,0,0,0,0,0,0,0,0,0,0,0,0,0,0,0,0,0,0,0,0,0,0,0,0,0,0,0,0,0,0,0,0,0,0,0,0,0,0,0,0,0,0,0,0,0,0,0,0,0,0,0,0,0,0,0,0,0,0,0,0,0,0,0,0,0,0,0,0,0,0,0,0,0,0,0,0,0,0,0],"sum_hessian":[8.9761E4,5.2946E4,3.6815E4,3.2007E4,2.0939E4,1.6584E4,2.0231E4,1.7245E4,1.4762E4,1.039E4,1.0549E4,5.217E3,1.1367E4,1.1316E4,8.915E3,7.5E3,9.745E3,1.1725E4,3.037E3,3.593E3,6.797E3,8.03E3,2.519E3,9.06E2,4.311E3,7.972E3,3.395E3,8.95E3,2.366E3,6.035E3,2.88E3,2.918E3,4.582E3,6.224E3,3.521E3,6.745E3,4.98E3,2.264E3,7.73E2,1.203E3,2.39E3,3.985E3,2.812E3,4.193E3,3.837E3,1.246E3,1.273E3,2.69E2,6.37E2,2.565E3,1.746E3,4.574E3,3.398E3,2.045E3,1.35E3,3.383E3,5.567E3,1.225E3,1.141E3,1.541E3,4.494E3,2.07E3,8.1E2,2.361E3,5.57E2,3.273E3,1.309E3,5.242E3,9.82E2,2.358E3,1.163E3,4.474E3,2.271E3,4.151E3,8.29E2,1.541E3,7.23E2,5.4E1,7.19E2,2.14E2,9.89E2,9.06E2,1.484E3,3.42E3,5.65E2,1.877E3,9.35E2,3.347E3,8.46E2,2.2E3,1.637E3,8.13E2,4.33E2,1.127E3,1.46E2,9.6E1,1.73E2,4.39E2,1.98E2,1.393E3,1.172E3,1.056E3,6.9E2,2.391E3,2.183E3,1.135E3,2.263E3,1.325E3,7.2E2,6.42E2,7.08E2,1.768E3,1.615E3,1.408E3,4.159E3,6.42E2,5.83E2,6.77E2,4.64E2,5.79E2,9.62E2,1.898E3,2.596E3,1.347E3,7.23E2,5.48E2,2.62E2],"tree_param":{"num_deleted":"0","num_feature":"22","num_nodes":"127","size_leaf_vector":"1"}},{"base_weights":[5.7035293E-5,-1.2850499E-1,1.6593896E-1,-1.7948978E-1,-6.07272E-2,6.489996E-2,2.5276235E-1,-2.0674871E-1,-1.237545E-1,-1.0996534E-1,4.674468E-3,-3.3857014E-2,1.0824442E-1,1.8679906E-1,3.1739178E-1,-2.349893E-1,-1.8674134E-1,-1.4342146E-1,-7.223181E-2,-1.661697E-1,-8.3462216E-2,-1.7748129E-2,6.961263E-2,-1.0181322E-1,-2.1375236E-3,7.503857E-2,2.0712319E-1,1.6509356E-1,2.761877E-1,2.896468E-1,3.8415036E-1,-2.5538966E-1,-2.2412111E-1,-2.0104401E-1,-1.6798005E-1,-1.6316967E-1,-1.19258165E-1,-9.638862E-2,-1.20011335E-2,-1.9672243E-1,-1.4809261E-1,-1.0564494E-1,-5.5795994E-2,-5.2846227E-2,3.720281E-3,5.1675368E-2,1.4274016E-1,-1.655493E-1,-7.585965E-2,-3.244554E-2,5.3868536E-2,1.0312664E-1,3.2242324E-2,2.481622E-1,1.676105E-1,1.19421095E-1,1.9539122E-1,3.2350907E-1,2.260062E-1,2.0456733E-1,3.0403113E-1,4.1079414E-1,3.376716E-1,-1.2964475E-2,-1.1601215E-2,-1.1551796E-2,-1.006279E-2,-1.0414245E-2,-9.168194E-3,-9.110033E-3,-7.851769E-3,-5.3699594E-3,-8.537306E-3,-5.527205E-3,-8.519929E-3,-5.217255E-3,5.8084005E-4,1.03967665E-2,-1.0409262E-3,-1.1493995E-2,-9.432572E-3,-6.0970294E-3,-8.228383E-3,-4.476852E-3,-6.4486056E-3,-1.8077884E-3,-4.236291E-3,-2.8365077E-3,3.6545831E-3,1.6255368E-3,-1.3498897E-3,1.3080514E-3,4.8052925E-3,8.3763525E-3,1.081683E-3,-1.1126212E-2,-7.4784905E-3,-2.3331128E-3,-5.373254E-3,-1.4170773E-4,-3.217391E-3,4.6629715E-3,-2.734513E-4,3.3348165E-3,7.021466E-3,-1.0779593E-3,2.7761972E-3,1.5806427E-2,1.1276356E-2,4.911813E-3,9.55961E-3,4.1222507E-3,7.892921E-3,7.304766E-3,1.07911015E-2,1.4078105E-2,1.7868267E-2,1.2016519E-2,6.0076537E-3,1.2273322E-2,8.608462E-3,1.6872825E-2,1.408979E-2,1.9133149E-2,2.2993606E-2,1.8132588E-2,1.5175111E-2],"categories":[],"categories_nodes":[],"categories_segments":[],"categories_sizes":[],"default_left":[0,0,0,0,0,0,0,0,0,0,0,0,0,0,0,0,0,0,0,0,0,0,0,0,0,0,0,0,0,0,0,0,0,0,0,0,0,0,0,0,0,0,0,0,0,0,0,0,0,0,0,0,0,0,0,0,0,0,0,0,0,0,0,0,0,0,0,0,0,0,0,0,0,0,0,0,0,0,0,0,0,0,0,0,0,0,0,0,0,0,0,0,0,0,0,0,0,0,0,0,0,0,0,0,0,0,0,0,0,0,0,0,0,0,0,0,0,0,0,0,0,0,0,0,0,0,0],"id":2,"left_children":[1,3,5,7,9,11,13,15,17,19,21,23,25,27,29,31,33,35,37,39,41,43,45,47,49,51,53,55,57,59,61,63,65,67,69,71,73,75,77,79,81,83,85,87,89,91,93,95,97,99,101,103,105,107,109,111,113,115,117,119,121,123,125,-1,-1,-1,-1,-1,-1,-1,-1,-1,-1,-1,-1,-1,-1,-1,-1,-1,-1,-1,-1,-1,-1,-1,-1,-1,-1,-1,-1,-1,-1,-1,-1,-1,-1,-1,-1,-1,-1,-1,-1,-1,-1,-1,-1,-1,-1,-1,-1,-1,-1,-1,-1,-1,-1,-1,-1,-1,-1,-1,-1,-1,-1,-1,-1],"loss_changes":[1.9103936E3,1.743847E2,3.4310437E2,4.37312E1,6.977382E1,7.7387764E1,8.962085E1,1.0883606E1,9.577438E0,1.8398972E1,1.3552993E1,1.1887563E1,4.123651E1,2.0157959E1,1.956665E1,1.7200012E0,3.005127E0,3.2478027E0,3.8050747E0,2.1579971E0,5.1505127E0,5.213665E0,3.1262941E0,2.890524E0,6.385792E0,1.1304489E1,5.0792847E0,1.1574036E1,4.7545624E0,9.127441E0,3.7200928E0,1.9306946E-1,7.8167725E-1,7.83844E-1,7.3480225E-1,1.5725327E0,1.3550758E0,1.6056042E0,1.4587783E0,3.4976196E-1,1.0536232E0,1.7402077E0,2.122529E0,1.2886119E0,3.7984369E0,2.174025E0,1.4072466E0,4.2830563E-1,1.1475582E0,2.305759E0,3.0881612E0,7.7080994E0,4.6720915E0,2.3086548E0,2.6183891E0,4.741108E0,5.041519E0,1.3820343E0,1.4722214E0,1.4007225E0,4.677185E0,2.5520935E0,8.638458E-1,0E0,0E0,0E0,0E0,0E0,0E0,0E0,0E0,0E0,0E0,0E0,0E0,0E0,0E0,0E0,0E0,0E0,0E0,0E0,0E0,0E0,0E0,0E0,0E0,0E0,0E0,0E0,0E0,0E0,0E0,0E0,0E0,0E0,0E0,0E0,0E0,0E0,0E0,0E0,0E0,0E0,0E0,0E0,0E0,0E0,0E0,0E0,0E0,0E0,0E0,0E0,0E0,0E0,0E0,0E0,0E0,0E0,0E0,0E0,0E0,0E0,0E0,0E0,0E0],"parents":[2147483647,0,0,1,1,2,2,3,3,4,4,5,5,6,6,7,7,8,8,9,9,10,10,11,11,12,12,13,13,14,14,15,15,16,16,17,17,18,18,19,19,20,20,21,21,22,22,23,23,24,24,25,25,26,26,27,27,28,28,29,29,30,30,31,31,32,32,33,33,34,34,35,35,36,36,37,37,38,38,39,39,40,40,41,41,42,42,43,43,44,44,45,45,46,46,47,47,48,48,49,49,50,50,51,51,52,52,53,53,54,54,55,55,56,56,57,57,58,58,59,59,60,60,61,61,62,62],"right_children":[2,4,6,8,10,12,14,16,18,20,22,24,26,28,30,32,34,36,38,40,42,44,46,48,50,52,54,56,58,60,62,64,66,68,70,72,74,76,78,80,82,84,86,88,90,92,94,96,98,100,102,104,106,108,110,112,114,116,118,120,122,124,126,-1,-1,-1,-1,-1,-1,-1,-1,-1,-1,-1,-1,-1,-1,-1,-1,-1,-1,-1,-1,-1,-1,-1,-1,-1,-1,-1,-1,-1,-1,-1,-1,-1,-1,-1,-1,-1,-1,-1,-1,-1,-1,-1,-1,-1,-1,-1,-1,-1,-1,-1,-1,-1,-1,-1,-1,-1,-1,-1,-1,-1,-1,-1,-1],"split_conditions":[7.2577996E0,5.3977995E0,3.9621672E-1,2.7919587E-1,3.0451256E-1,2.4564172E-1,1.1336515E1,1.4153755E-1,4.1590422E-1,1.6709588E-1,4.6320838E-1,1.6505839E-1,1.1936515E1,6.0095423E-1,6.243625E-1,8.087089E-2,4.197799E0,4.197799E0,3.5772594E1,1.1169172E-1,6.3977995E0,6.1677995E0,5.8540004E-1,1.1169172E-1,9.0278E0,3.2749587E-1,2.2249588E-1,8.636515E0,2.4605168E2,9.0678E0,2.910517E2,4.7077994E0,4.6077995E0,1.6E1,3.6372597E1,2.3118278E-1,6.551959E-1,5.957917E-1,1.464E3,6.590005E-2,8.3995886E-2,2.4929589E-1,2.3839588E-1,1.0336515E1,3.658959E-1,6.717799E0,8.493959E-1,7.437922E-2,1.03795886E-1,1.7319588E-1,7.866421E1,9.236515E0,3.0951256E-1,4E0,3.0779588E-1,3.4779602E1,8.4978E0,6.453751E-1,2.5633E4,5E0,3.958959E-1,7.217501E-1,1.5128E4,-1.2964475E-2,-1.1601215E-2,-1.1551796E-2,-1.006279E-2,-1.0414245E-2,-9.168194E-3,-9.110033E-3,-7.851769E-3,-5.3699594E-3,-8.537306E-3,-5.527205E-3,-8.519929E-3,-5.217255E-3,5.8084005E-4,1.03967665E-2,-1.0409262E-3,-1.1493995E-2,-9.432572E-3,-6.0970294E-3,-8.228383E-3,-4.476852E-3,-6.4486056E-3,-1.8077884E-3,-4.236291E-3,-2.8365077E-3,3.6545831E-3,1.6255368E-3,-1.3498897E-3,1.3080514E-3,4.8052925E-3,8.3763525E-3,1.081683E-3,-1.1126212E-2,-7.4784905E-3,-2.3331128E-3,-5.373254E-3,-1.4170773E-4,-3.217391E-3,4.6629715E-3,-2.734513E-4,3.3348165E-3,7.021466E-3,-1.0779593E-3,2.7761972E-3,1.5806427E-2,1.1276356E-2,4.911813E-3,9.55961E-3,4.1222507E-3,7.892921E-3,7.304766E-3,1.07911015E-2,1.4078105E-2,1.7868267E-2,1.2016519E-2,6.0076537E-3,1.2273322E-2,8.608462E-3,1.6872825E-2,1.408979E-2,1.9133149E-2,2.2993606E-2,1.8132588E-2,1.5175111E-2],"split_indices":[6,6,16,16,16,16,9,16,16,16,16,16,9,16,16,16,6,6,4,16,6,6,16,16,6,14,14,9,7,6,7,6,6,10,4,17,14,16,0,16,14,14,14,9,14,6,14,16,14,14,3,9,16,12,16,2,6,16,0,12,14,16,0,0,0,0,0,0,0,0,0,0,0,0,0,0,0,0,0,0,0,0,0,0,0,0,0,0,0,0,0,0,0,0,0,0,0,0,0,0,0,0,0,0,0,0,0,0,0,0,0,0,0,0,0,0,0,0,0,0,0,0,0,0,0,0,0],"split_type":[0,0,0,0,0,0,0,0,0,0,0,0,0,0,0,0,0,0,0,0,0,0,0,0,0,0,0,0,0,0,0,0,0,0,0,0,0,0,0,0,0,0,0,0,0,0,0,0,0,0,0,0,0,0,0,0,0,0,0,0,0,0,0,0,0,0,0,0,0,0,0,0,0,0,0,0,0,0,0,0,0,0,0,0,0,0,0,0,0,0,0,0,0,0,0,0,0,0,0,0,0,0,0,0,0,0,0,0,0,0,0,0,0,0,0,0,0,0,0,0,0,0,0,0,0,0,0],"sum_hessian":[8.9578E4,5.0466E4,3.9112E4,2.88E4,2.1666E4,1.8077E4,2.1035E4,1.9339E4,9.461E3,1.236E4,9.306E3,5.514E3,1.2563E4,1.0412E4,1.0623E4,8.015E3,1.1324E4,6.846E3,2.615E3,3.959E3,8.401E3,6.918E3,2.388E3,1.754E3,3.76E3,9.406E3,3.157E3,8.38E3,2.032E3,7.508E3,3.115E3,2.778E3,5.237E3,6.42E3,4.904E3,3.764E3,3.082E3,1.866E3,7.49E2,1.468E3,2.491E3,4.661E3,3.74E3,2.625E3,4.293E3,1.919E3,4.69E2,5.06E2,1.248E3,2.44E3,1.32E3,5.678E3,3.728E3,1.546E3,1.611E3,3.344E3,5.036E3,1.043E3,9.89E2,1.088E3,6.42E3,1.975E3,1.14E3,2.372E3,4.06E2,4.014E3,1.223E3,4.547E3,1.873E3,2.126E3,2.778E3,4.52E2,3.312E3,2.636E3,4.46E2,1.738E3,1.28E2,2.8E1,7.21E2,2.82E2,1.186E3,9.66E2,1.525E3,2.76E3,1.901E3,2.229E3,1.511E3,2.547E3,7.8E1,2.216E3,2.077E3,1.22E3,6.99E2,3.89E2,8E1,1.08E2,3.98E2,6.5E2,5.98E2,1.266E3,1.174E3,7.93E2,5.27E2,2.874E3,2.804E3,1.126E3,2.602E3,3.83E2,1.163E3,4.1E2,1.201E3,1.706E3,1.638E3,1.478E3,3.558E3,4.7E2,5.73E2,8.7E2,1.19E2,4.78E2,6.1E2,2.559E3,3.861E3,1.261E3,7.14E2,6.53E2,4.87E2],"tree_param":{"num_deleted":"0","num_feature":"22","num_nodes":"127","size_leaf_vector":"1"}},{"base_weights":[-1.1408349E-4,-1.1560518E-1,1.6545707E-1,-1.6311824E-1,-3.83777E-2,6.342876E-2,2.3862535E-1,-1.9247264E-1,-1.1055534E-1,-1.0831472E-1,9.007286E-3,-2.3902692E-2,1.0480608E-1,1.7944565E-1,3.024857E-1,-2.2021869E-1,-1.7164645E-1,-1.3357432E-1,-6.693708E-2,-1.4894937E-1,-8.063313E-2,-1.2407278E-2,9.229315E-2,-1.1357697E-1,-3.1497428E-4,7.1885645E-2,1.9636497E-1,1.4917235E-1,2.3451233E-1,2.6980498E-1,3.5546494E-1,-2.4066411E-1,-2.1027222E-1,-1.8774596E-1,-1.4647384E-1,-1.4757197E-1,-9.027764E-2,-9.073337E-2,-2.7347371E-2,-1.8405855E-1,-1.3425763E-1,-5.5293437E-2,-1.0284791E-1,5.740958E-3,-5.4391265E-2,7.6750435E-2,1.7058475E-1,-1.7697299E-1,-8.952449E-2,-2.4944933E-2,5.4398254E-2,2.7434846E-2,9.6622065E-2,2.3830894E-1,1.544003E-1,1.0596283E-1,1.8065897E-1,2.7600816E-1,1.897263E-1,1.9251476E-1,2.8378692E-1,3.352278E-1,4.1090307E-1,-1.2264407E-2,-1.0760813E-2,-1.09540615E-2,-9.4702905E-3,-9.0637775E-3,-1.0396533E-2,-6.945632E-3,-8.7114135E-3,-6.970799E-3,-9.450211E-3,-3.8859607E-3,-7.706283E-3,-6.172644E-3,-2.9594093E-3,-2.1983723E-3,4.35771E-3,-1.0600085E-2,-8.815483E-3,-5.365729E-3,-7.5378763E-3,-3.364404E-3,-1.2197605E-3,-4.886841E-3,-8.181788E-3,-1.1588903E-3,1.6679111E-3,-4.5421743E-3,-9.5122884E-4,5.8125514E-3,2.4176498E-3,1.1114812E-2,5.79686E-3,-4.2565013E-3,-9.278795E-3,-8.368273E-4,-4.9602096E-3,-3.7113833E-4,-3.641187E-3,4.687752E-3,-1.7150285E-4,6.742764E-5,2.9490476E-3,6.406718E-3,2.8305403E-3,1.3093896E-2,9.350604E-3,5.8495007E-3,9.826864E-3,6.366124E-3,2.47969E-3,1.0646846E-2,7.0882305E-3,1.2692052E-2,1.714639E-2,8.514847E-3,1.310803E-2,1.2778433E-2,7.1273963E-3,1.5642432E-2,1.2873088E-2,1.7727276E-2,1.4184442E-2,2.2475801E-2,1.8149672E-2],"categories":[],"categories_nodes":[],"categories_segments":[],"categories_sizes":[],"default_left":[0,0,0,0,0,0,0,0,0,0,0,0,0,0,0,0,0,0,0,0,0,0,0,0,0,0,0,0,0,0,0,0,0,0,0,0,0,0,0,0,0,0,0,0,0,0,0,0,0,0,0,0,0,0,0,0,0,0,0,0,0,0,0,0,0,0,0,0,0,0,0,0,0,0,0,0,0,0,0,0,0,0,0,0,0,0,0,0,0,0,0,0,0,0,0,0,0,0,0,0,0,0,0,0,0,0,0,0,0,0,0,0,0,0,0,0,0,0,0,0,0,0,0,0,0,0,0],"id":3,"left_children":[1,3,5,7,9,11,13,15,17,19,21,23,25,27,29,31,33,35,37,39,41,43,45,47,49,51,53,55,57,59,61,63,65,67,69,71,73,75,77,79,81,83,85,87,89,91,93,95,97,99,101,103,105,107,109,111,113,115,117,119,121,123,125,-1,-1,-1,-1,-1,-1,-1,-1,-1,-1,-1,-1,-1,-1,-1,-1,-1,-1,-1,-1,-1,-1,-1,-1,-1,-1,-1,-1,-1,-1,-1,-1,-1,-1,-1,-1,-1,-1,-1,-1,-1,-1,-1,-1,-1,-1,-1,-1,-1,-1,-1,-1,-1,-1,-1,-1,-1,-1,-1,-1,-1,-1,-1,-1],"loss_changes":[1.712145E3,1.9353546E2,2.746458E2,5.036377E1,6.658516E1,5.5531796E1,8.091968E1,1.2069153E1,1.1742416E1,9.11599E0,2.1364273E1,1.0451225E1,3.141452E1,1.8507599E1,1.7744385E1,1.7755737E0,4.824768E0,4.6290436E0,3.8082657E0,1.6707764E0,2.712635E0,7.260794E0,2.9682236E0,1.5532093E0,5.2744555E0,8.432022E0,4.815979E0,9.74942E0,7.277298E0,6.8367615E0,4.2691345E0,2.9222107E-1,1.0703735E0,9.155884E-1,9.5687866E-1,1.9291916E0,1.4906521E0,2.599886E0,2.8964295E0,1.720047E-1,1.0156403E0,8.352032E-1,7.8310776E-1,5.3150373E0,3.7059937E0,2.2894096E0,1.1187191E0,2.0701408E-1,5.2535486E-1,2.2637596E0,2.765585E0,2.2580156E0,6.2061996E0,1.6158447E0,2.1539574E0,3.6406746E0,5.182358E0,2.9465332E0,2.6293259E0,3.0511627E0,4.049225E0,2.7697754E0,1.7718506E0,0E0,0E0,0E0,0E0,0E0,0E0,0E0,0E0,0E0,0E0,0E0,0E0,0E0,0E0,0E0,0E0,0E0,0E0,0E0,0E0,0E0,0E0,0E0,0E0,0E0,0E0,0E0,0E0,0E0,0E0,0E0,0E0,0E0,0E0,0E0,0E0,0E0,0E0,0E0,0E0,0E0,0E0,0E0,0E0,0E0,0E0,0E0,0E0,0E0,0E0,0E0,0E0,0E0,0E0,0E0,0E0,0E0,0E0,0E0,0E0,0E0,0E0,0E0,0E0],"parents":[2147483647,0,0,1,1,2,2,3,3,4,4,5,5,6,6,7,7,8,8,9,9,10,10,11,11,12,12,13,13,14,14,15,15,16,16,17,17,18,18,19,19,20,20,21,21,22,22,23,23,24,24,25,25,26,26,27,27,28,28,29,29,30,30,31,31,32,32,33,33,34,34,35,35,36,36,37,37,38,38,39,39,40,40,41,41,42,42,43,43,44,44,45,45,46,46,47,47,48,48,49,49,50,50,51,51,52,52,53,53,54,54,55,55,56,56,57,57,58,58,59,59,60,60,61,61,62,62],"right_children":[2,4,6,8,10,12,14,16,18,20,22,24,26,28,30,32,34,36,38,40,42,44,46,48,50,52,54,56,58,60,62,64,66,68,70,72,74,76,78,80,82,84,86,88,90,92,94,96,98,100,102,104,106,108,110,112,114,116,118,120,122,124,126,-1,-1,-1,-1,-1,-1,-1,-1,-1,-1,-1,-1,-1,-1,-1,-1,-1,-1,-1,-1,-1,-1,-1,-1,-1,-1,-1,-1,-1,-1,-1,-1,-1,-1,-1,-1,-1,-1,-1,-1,-1,-1,-1,-1,-1,-1,-1,-1,-1,-1,-1,-1,-1,-1,-1,-1,-1,-1,-1,-1,-1,-1,-1,-1],"split_conditions":[7.4777994E0,5.7277994E0,3.826209E-1,2.7166256E-1,2.5593755E-1,2.4564172E-1,1.1536515E1,1.4380005E-1,3.9241672E-1,1.6709588E-1,4.6320838E-1,1.4380005E-1,1.1936515E1,5.363126E-1,5.9075004E-1,8.087089E-2,4.5677996E0,5.1077995E0,3.2772594E1,1.0634172E-1,1.6149588E-1,4.7679588E-1,6.0095423E-1,9.872922E-2,9.377799E0,8.436515E0,2.1199588E-1,8.936515E0,2.4505168E2,9.1477995E0,7.217501E-1,4.8377995E0,4.6077995E0,3.410959E-1,3.410959E-1,6.267959E-1,5.836959E-1,4.467799E0,5.440584E-1,6.590005E-2,8.199589E-2,6.8977995E0,5.523959E-1,6.6277995E0,3.6437088E-1,4.8969588E-1,2.700573E2,5.3664204E1,5.6664204E1,2.519959E-1,7.866421E1,3.2174173E-1,2.828959E-1,5.1172596E1,3.3930007E-1,2.650517E2,4.547959E-1,6.537834E-1,6.7185366E-1,5.985389E0,4.161959E-1,3.040517E2,2.810573E2,-1.2264407E-2,-1.0760813E-2,-1.09540615E-2,-9.4702905E-3,-9.0637775E-3,-1.0396533E-2,-6.945632E-3,-8.7114135E-3,-6.970799E-3,-9.450211E-3,-3.8859607E-3,-7.706283E-3,-6.172644E-3,-2.9594093E-3,-2.1983723E-3,4.35771E-3,-1.0600085E-2,-8.815483E-3,-5.365729E-3,-7.5378763E-3,-3.364404E-3,-1.2197605E-3,-4.886841E-3,-8.181788E-3,-1.1588903E-3,1.6679111E-3,-4.5421743E-3,-9.5122884E-4,5.8125514E-3,2.4176498E-3,1.1114812E-2,5.79686E-3,-4.2565013E-3,-9.278795E-3,-8.368273E-4,-4.9602096E-3,-3.7113833E-4,-3.641187E-3,4.687752E-3,-1.7150285E-4,6.742764E-5,2.9490476E-3,6.406718E-3,2.8305403E-3,1.3093896E-2,9.350604E-3,5.8495007E-3,9.826864E-3,6.366124E-3,2.47969E-3,1.0646846E-2,7.0882305E-3,1.2692052E-2,1.714639E-2,8.514847E-3,1.310803E-2,1.2778433E-2,7.1273963E-3,1.5642432E-2,1.2873088E-2,1.7727276E-2,1.4184442E-2,2.2475801E-2,1.8149672E-2],"split_indices":[6,6,16,16,16,16,9,16,16,16,16,16,9,16,16,16,6,6,4,16,14,14,16,16,6,9,14,9,7,6,16,6,6,14,14,14,14,6,16,16,14,6,14,6,16,14,8,3,3,14,3,16,14,4,16,7,14,16,16,5,14,7,8,0,0,0,0,0,0,0,0,0,0,0,0,0,0,0,0,0,0,0,0,0,0,0,0,0,0,0,0,0,0,0,0,0,0,0,0,0,0,0,0,0,0,0,0,0,0,0,0,0,0,0,0,0,0,0,0,0,0,0,0,0,0,0,0],"split_type":[0,0,0,0,0,0,0,0,0,0,0,0,0,0,0,0,0,0,0,0,0,0,0,0,0,0,0,0,0,0,0,0,0,0,0,0,0,0,0,0,0,0,0,0,0,0,0,0,0,0,0,0,0,0,0,0,0,0,0,0,0,0,0,0,0,0,0,0,0,0,0,0,0,0,0,0,0,0,0,0,0,0,0,0,0,0,0,0,0,0,0,0,0,0,0,0,0,0,0,0,0,0,0,0,0,0,0,0,0,0,0,0,0,0,0,0,0,0,0,0,0,0,0,0,0,0,0],"sum_hessian":[8.9536E4,5.2745E4,3.6791E4,3.2654E4,2.0091E4,1.5366E4,2.1425E4,2.0951E4,1.1703E4,8.114E3,1.1977E4,4.94E3,1.0426E4,1.1122E4,1.0303E4,8.979E3,1.1972E4,7.659E3,4.044E3,3.286E3,4.828E3,9.528E3,2.449E3,1.028E3,3.912E3,7.67E3,2.756E3,7.179E3,3.943E3,6.376E3,3.927E3,2.931E3,6.048E3,7.298E3,4.674E3,5.786E3,1.873E3,2.525E3,1.519E3,9.66E2,2.32E3,2.257E3,2.571E3,6.653E3,2.875E3,2.045E3,4.04E2,2.81E2,7.47E2,2.698E3,1.214E3,2.743E3,4.927E3,1.376E3,1.38E3,3.028E3,4.151E3,2.044E3,1.899E3,9.79E2,5.397E3,2.882E3,1.045E3,2.473E3,4.58E2,4.246E3,1.802E3,5.534E3,1.764E3,3.678E3,9.96E2,4.838E3,9.48E2,1.567E3,3.06E2,1.238E3,1.287E3,1.327E3,1.92E2,2.04E2,7.62E2,8.84E2,1.436E3,1.625E3,6.32E2,2.374E3,1.97E2,3.25E3,3.403E3,1.415E3,1.46E3,8.54E2,1.191E3,2.06E2,1.98E2,2.5E1,2.56E2,8.8E1,6.59E2,1.976E3,7.22E2,7.22E2,4.92E2,1.502E3,1.241E3,2.755E3,2.172E3,9.4E2,4.36E2,7.33E2,6.47E2,2.195E3,8.33E2,2.266E3,1.885E3,1.539E3,5.05E2,1.5E3,3.99E2,4.31E2,5.48E2,2.56E3,2.837E3,2.092E3,7.9E2,5.74E2,4.71E2],"tree_param":{"num_deleted":"0","num_feature":"22","num_nodes":"127","size_leaf_vector":"1"}},{"base_weights":[1.4508537E-4,-1.03060514E-1,1.6747056E-1,-1.5193534E-1,-2.5083613E-2,6.2585816E-2,2.3045537E-1,-1.76353E-1,-9.1091745E-2,-9.844326E-2,1.8705094E-2,-3.738371E-2,9.5354885E-2,1.813227E-1,2.9533285E-1,-2.0485781E-1,-1.5550245E-1,-1.1440118E-1,-5.5201836E-2,-1.3792354E-1,-7.132509E-2,-6.7167226E-3,8.3933204E-2,-1.1434036E-1,-1.4861406E-2,4.350507E-2,1.4646144E-1,1.5760942E-1,2.4828441E-1,2.4168813E-1,3.2285565E-1,-2.1550748E-1,-1.7960584E-1,-1.6915722E-1,-1.2019558E-1,-1.3380088E-1,-7.044314E-2,-6.302144E-2,4.1730262E-2,-1.7075044E-1,-1.2082534E-1,-7.764818E-2,-1.52925765E-2,-3.685734E-2,1.4095331E-2,5.177207E-2,1.1840863E-1,-1.678336E-1,-9.6264064E-2,1.0077E-2,-4.7690794E-2,1.4647188E-2,6.765622E-2,1.2494837E-1,2.0336543E-1,9.0893194E-2,1.7398018E-1,2.937454E-1,2.039927E-1,2.1812125E-1,2.8128505E-1,3.094015E-1,3.9352468E-1,-1.1645385E-2,-1.0360094E-2,-1.0050086E-2,-8.239297E-3,-8.708589E-3,-7.1021104E-3,-7.6008523E-3,-5.6603765E-3,-7.7934056E-3,-6.0580196E-3,-5.0586713E-3,-7.8440754E-4,-3.8437247E-3,-1.7666103E-3,-3.0514481E-4,6.3851723E-3,-1.02510825E-2,-8.161955E-3,-8.544797E-3,-5.811527E-3,-4.6854597E-3,-3.2024805E-3,-4.7365032E-4,-5.4657212E-3,-6.486843E-3,-1.5925908E-3,-4.803901E-3,8.7183993E-4,1.5337388E-3,4.9280734E-3,4.207751E-3,7.598527E-3,-1.6769301E-3,-8.776802E-3,1.2111673E-3,-5.183216E-3,-1.018449E-3,3.3563406E-3,-1.0596866E-3,-4.3155677E-3,-1.6308802E-3,1.4562549E-3,2.3334046E-4,4.3594087E-3,7.599987E-3,4.1715265E-3,6.6168956E-3,1.1285998E-2,2.52876E-3,7.0239524E-3,2.7342057E-3,9.0429E-3,1.3268518E-2,1.6818011E-2,8.822328E-3,1.335306E-2,1.1553493E-2,8.4435595E-3,1.3748251E-2,2.1982623E-2,1.6705435E-2,1.4136347E-2,2.1762429E-2,1.7798534E-2],"categories":[],"categories_nodes":[],"categories_segments":[],"categories_sizes":[],"default_left":[0,0,0,0,0,0,0,0,0,0,0,0,0,0,0,0,0,0,0,0,0,0,0,0,0,0,0,0,0,0,0,0,0,0,0,0,0,0,0,0,0,0,0,0,0,0,0,0,0,0,0,0,0,0,0,0,0,0,0,0,0,0,0,0,0,0,0,0,0,0,0,0,0,0,0,0,0,0,0,0,0,0,0,0,0,0,0,0,0,0,0,0,0,0,0,0,0,0,0,0,0,0,0,0,0,0,0,0,0,0,0,0,0,0,0,0,0,0,0,0,0,0,0,0,0,0,0],"id":4,"left_children":[1,3,5,7,9,11,13,15,17,19,21,23,25,27,29,31,33,35,37,39,41,43,45,47,49,51,53,55,57,59,61,63,65,67,69,71,73,75,77,79,81,83,85,87,89,91,93,95,97,99,101,103,105,107,109,111,113,115,117,119,121,123,125,-1,-1,-1,-1,-1,-1,-1,-1,-1,-1,-1,-1,-1,-1,-1,-1,-1,-1,-1,-1,-1,-1,-1,-1,-1,-1,-1,-1,-1,-1,-1,-1,-1,-1,-1,-1,-1,-1,-1,-1,-1,-1,-1,-1,-1,-1,-1,-1,-1,-1,-1,-1,-1,-1,-1,-1,-1,-1,-1,-1,-1,-1,-1,-1],"loss_changes":[1.5496617E3,2.1152411E2,2.2614044E2,5.067163E1,6.870061E1,4.208589E1,6.81261E1,1.4437927E1,8.1695175E0,8.548813E0,2.2209064E1,5.4961414E0,2.563108E1,1.9291718E1,1.3528992E1,2.7263489E0,6.760498E0,5.042404E0,2.9208164E0,1.8057785E0,1.6785431E0,6.046323E0,4.1584053E0,6.781206E-1,2.01042E0,3.3471613E0,5.9387894E0,9.806305E0,6.347183E0,2.858551E0,5.666687E0,9.962158E-1,9.3588257E-1,1.3540039E0,8.558159E-1,1.1272812E0,3.054079E0,1.3639812E0,1.1851413E0,2.5278854E-1,4.731636E-1,9.2440987E-1,2.6269883E-1,1.8262205E0,2.1008139E0,1.9169436E0,2.0703163E0,1.8030405E-1,4.8310423E-1,2.426132E0,1.0829017E0,1.4995569E0,3.2168436E0,3.9608955E0,2.0898285E0,3.5394802E0,5.9140778E0,1.8067627E0,2.7585983E0,1.2147369E0,1.0441437E0,3.2792358E0,1.3649445E0,0E0,0E0,0E0,0E0,0E0,0E0,0E0,0E0,0E0,0E0,0E0,0E0,0E0,0E0,0E0,0E0,0E0,0E0,0E0,0E0,0E0,0E0,0E0,0E0,0E0,0E0,0E0,0E0,0E0,0E0,0E0,0E0,0E0,0E0,0E0,0E0,0E0,0E0,0E0,0E0,0E0,0E0,0E0,0E0,0E0,0E0,0E0,0E0,0E0,0E0,0E0,0E0,0E0,0E0,0E0,0E0,0E0,0E0,0E0,0E0,0E0,0E0,0E0,0E0],"parents":[2147483647,0,0,1,1,2,2,3,3,4,4,5,5,6,6,7,7,8,8,9,9,10,10,11,11,12,12,13,13,14,14,15,15,16,16,17,17,18,18,19,19,20,20,21,21,22,22,23,23,24,24,25,25,26,26,27,27,28,28,29,29,30,30,31,31,32,32,33,33,34,34,35,35,36,36,37,37,38,38,39,39,40,40,41,41,42,42,43,43,44,44,45,45,46,46,47,47,48,48,49,49,50,50,51,51,52,52,53,53,54,54,55,55,56,56,57,57,58,58,59,59,60,60,61,61,62,62],"right_children":[2,4,6,8,10,12,14,16,18,20,22,24,26,28,30,32,34,36,38,40,42,44,46,48,50,52,54,56,58,60,62,64,66,68,70,72,74,76,78,80,82,84,86,88,90,92,94,96,98,100,102,104,106,108,110,112,114,116,118,120,122,124,126,-1,-1,-1,-1,-1,-1,-1,-1,-1,-1,-1,-1,-1,-1,-1,-1,-1,-1,-1,-1,-1,-1,-1,-1,-1,-1,-1,-1,-1,-1,-1,-1,-1,-1,-1,-1,-1,-1,-1,-1,-1,-1,-1,-1,-1,-1,-1,-1,-1,-1,-1,-1,-1,-1,-1,-1,-1,-1,-1,-1,-1,-1,-1,-1],"split_conditions":[4.561417E2,1.9895163E2,3.7033337E-1,3.0271673E-1,2.542042E-1,2.2162506E-1,1.2036515E1,1.5509589E-1,1.1322533E2,1.6709588E-1,4.368542E-1,1.3502088E-1,1.0236515E1,5.706751E-1,4.9237087E-1,9.783195E1,1.27856445E2,4.2276427E-1,5.363126E-1,1.1169172E-1,1.0236515E1,2.9114417E2,3.3683383E2,9.3195885E-2,7.866421E1,2.946042E-1,1.3236515E1,7.936515E0,2.4205168E2,1.4336515E1,7.217501E-1,8.087089E-2,1.0116255E-1,1.9E1,2.44796E1,2.3972595E1,3.2972595E1,3.8972595E1,3.1872595E1,6.590005E-2,2.01796E1,2.79444E2,3.360517E2,7.5796003E0,-1.0427404E1,5.4039174E-1,5.0608337E-1,4.6664204E1,5.2664204E1,8.2471295E2,2.4360958E-1,1.4005168E2,2.47796E1,4.4372597E1,2.7613756E-1,3.74796E1,3.7796001E0,6.453751E-1,6.7185366E-1,4.9872597E1,8.9499587E-1,2.730517E2,2.640573E2,-1.1645385E-2,-1.0360094E-2,-1.0050086E-2,-8.239297E-3,-8.708589E-3,-7.1021104E-3,-7.6008523E-3,-5.6603765E-3,-7.7934056E-3,-6.0580196E-3,-5.0586713E-3,-7.8440754E-4,-3.8437247E-3,-1.7666103E-3,-3.0514481E-4,6.3851723E-3,-1.02510825E-2,-8.161955E-3,-8.544797E-3,-5.811527E-3,-4.6854597E-3,-3.2024805E-3,-4.7365032E-4,-5.4657212E-3,-6.486843E-3,-1.5925908E-3,-4.803901E-3,8.7183993E-4,1.5337388E-3,4.9280734E-3,4.207751E-3,7.598527E-3,-1.6769301E-3,-8.776802E-3,1.2111673E-3,-5.183216E-3,-1.018449E-3,3.3563406E-3,-1.0596866E-3,-4.3155677E-3,-1.6308802E-3,1.4562549E-3,2.3334046E-4,4.3594087E-3,7.599987E-3,4.1715265E-3,6.6168956E-3,1.1285998E-2,2.52876E-3,7.0239524E-3,2.7342057E-3,9.0429E-3,1.3268518E-2,1.6818011E-2,8.822328E-3,1.335306E-2,1.1553493E-2,8.4435595E-3,1.3748251E-2,2.1982623E-2,1.6705435E-2,1.4136347E-2,2.1762429E-2,1.7798534E-2],"split_indices":[18,18,16,16,16,16,9,16,18,16,16,16,9,16,16,18,18,16,16,16,9,18,18,16,3,16,9,9,7,9,16,16,16,10,2,4,4,4,4,16,2,18,7,2,4,16,16,3,3,18,17,7,2,4,16,2,2,16,16,4,15,7,8,0,0,0,0,0,0,0,0,0,0,0,0,0,0,0,0,0,0,0,0,0,0,0,0,0,0,0,0,0,0,0,0,0,0,0,0,0,0,0,0,0,0,0,0,0,0,0,0,0,0,0,0,0,0,0,0,0,0,0,0,0,0,0,0],"split_type":[0,0,0,0,0,0,0,0,0,0,0,0,0,0,0,0,0,0,0,0,0,0,0,0,0,0,0,0,0,0,0,0,0,0,0,0,0,0,0,0,0,0,0,0,0,0,0,0,0,0,0,0,0,0,0,0,0,0,0,0,0,0,0,0,0,0,0,0,0,0,0,0,0,0,0,0,0,0,0,0,0,0,0,0,0,0,0,0,0,0,0,0,0,0,0,0,0,0,0,0,0,0,0,0,0,0,0,0,0,0,0,0,0,0,0,0,0,0,0,0,0,0,0,0,0,0,0],"sum_hessian":[8.9735E4,5.5502E4,3.4233E4,3.4117E4,2.1385E4,1.2845E4,2.1388E4,2.4345E4,9.772E3,7.993E3,1.3392E4,3.171E3,9.674E3,1.2173E4,9.215E3,1.0281E4,1.4064E4,5.923E3,3.849E3,3.253E3,4.74E3,9.637E3,3.755E3,7.17E2,2.454E3,4.803E3,4.871E3,8.992E3,3.181E3,3.128E3,6.087E3,7.226E3,3.055E3,1.0139E4,3.925E3,4.108E3,1.815E3,3.562E3,2.87E2,1.111E3,2.142E3,4.259E3,4.81E2,3.936E3,5.701E3,1.944E3,1.811E3,1.79E2,5.38E2,1.395E3,1.059E3,2.189E3,2.614E3,3.537E3,1.334E3,1.773E3,7.219E3,1.567E3,1.614E3,1.965E3,1.163E3,5.118E3,9.69E2,2.326E3,4.9E3,1.245E3,1.81E3,8.552E3,1.587E3,7.03E2,3.222E3,1.492E3,2.616E3,1.162E3,6.53E2,2.373E3,1.189E3,1.85E2,1.02E2,1.95E2,9.16E2,1.77E2,1.965E3,1.95E3,2.309E3,4.54E2,2.7E1,2E2,3.736E3,1.67E2,5.534E3,1.341E3,6.03E2,8.98E2,9.13E2,1E1,1.69E2,3.1E1,5.07E2,9.1E2,4.85E2,6.29E2,4.3E2,5.13E2,1.676E3,6.19E2,1.995E3,2.14E3,1.397E3,3.21E2,1.013E3,9.79E2,7.94E2,3.94E2,6.825E3,9.45E2,6.22E2,1.126E3,4.88E2,1.553E3,4.12E2,1.121E3,4.2E1,2.651E3,2.467E3,4.54E2,5.15E2],"tree_param":{"num_deleted":"0","num_feature":"22","num_nodes":"127","size_leaf_vector":"1"}},{"base_weights":[2.567427E-4,-1.0421035E-1,1.50929E-1,-1.5065554E-1,-4.0186733E-2,3.124252E-1,1.1083182E-1,-1.2987992E-1,-2.0829947E-1,7.3784135E-2,-8.4528394E-2,6.581148E-2,3.3531225E-1,4.4329524E-2,2.0570968E-1,-1.7370048E-1,-9.866914E-2,-2.3073603E-1,-1.8028928E-1,-3.538292E-2,1.3340764E-1,-1.076995E-1,-2.590197E-2,-1.2222931E-1,1.03074774E-1,2.6607087E-1,3.713335E-1,-1.3164616E-2,9.0767086E-2,1.2554197E-1,2.4850275E-1,-2.0127761E-1,-1.5858E-1,-1.1496407E-1,-4.387877E-2,-2.4202311E-1,-2.0899147E-1,-2.0009036E-1,-1.5172784E-1,-8.8480346E-2,-2.7505432E-3,8.329972E-2,1.7925452E-1,-1.4988354E-1,-9.264705E-2,-8.602573E-2,-3.6792324E-3,-2.1257585E-2,-2.0334232E-1,1.3973759E-1,-9.320886E-4,2.8735426E-1,1.9759297E-1,3.259416E-1,4.079849E-1,-7.003546E-2,8.035223E-3,2.5414174E-2,1.166179E-1,1.7294586E-2,1.4468767E-1,1.9176312E-1,2.8303552E-1,-1.1092309E-2,-9.666674E-3,-7.013529E-3,-8.586417E-3,-4.135473E-3,-6.853518E-3,-3.2586653E-3,4.0664195E-4,-1.24959E-2,-1.1420824E-2,-1.0561789E-2,-3.9926395E-3,-1.1207965E-2,-9.669083E-3,-8.207256E-3,-6.3530686E-3,-6.5113143E-3,-3.7234307E-3,1.5913611E-3,-1.621263E-3,3.393794E-3,8.431724E-3,7.885648E-3,1.3242078E-2,-8.154746E-3,-6.381499E-3,-3.7511175E-3,-6.092599E-3,-2.4817963E-3,-6.155771E-3,2.318232E-3,-2.6485422E-3,6.144259E-3,-3.4357344E-3,-2.036712E-4,-1.1121224E-2,2.3386644E-3,8.598974E-3,-4.1911723E-3,2.8193512E-3,1.14893345E-2,1.5190126E-2,6.630196E-3,1.2025676E-2,1.9872464E-2,1.5670463E-2,1.9043757E-2,2.127841E-2,-6.6881427E-3,-2.6451966E-3,-1.0284093E-3,2.4775795E-3,3.9259847E-3,-1.8785015E-3,9.248232E-3,2.8852846E-3,-8.936862E-3,1.6828406E-3,6.212403E-3,9.662719E-3,1.1209629E-2,2.4498343E-3,1.2570731E-2,1.629926E-2],"categories":[],"categories_nodes":[],"categories_segments":[],"categories_sizes":[],"default_left":[0,0,0,0,0,0,0,0,0,0,0,0,0,0,0,0,0,0,0,0,0,0,0,0,0,0,0,0,0,0,0,0,0,0,0,0,0,0,0,0,0,0,0,0,0,0,0,0,0,0,0,0,0,0,0,0,0,0,0,0,0,0,0,0,0,0,0,0,0,0,0,0,0,0,0,0,0,0,0,0,0,0,0,0,0,0,0,0,0,0,0,0,0,0,0,0,0,0,0,0,0,0,0,0,0,0,0,0,0,0,0,0,0,0,0,0,0,0,0,0,0,0,0,0,0,0,0],"id":5,"left_children":[1,3,5,7,9,11,13,15,17,19,21,23,25,27,29,31,33,35,37,39,41,43,45,47,49,51,53,55,57,59,61,63,65,67,69,71,73,75,77,79,81,83,85,87,89,91,93,95,97,99,101,103,105,107,109,111,113,115,117,119,121,123,125,-1,-1,-1,-1,-1,-1,-1,-1,-1,-1,-1,-1,-1,-1,-1,-1,-1,-1,-1,-1,-1,-1,-1,-1,-1,-1,-1,-1,-1,-1,-1,-1,-1,-1,-1,-1,-1,-1,-1,-1,-1,-1,-1,-1,-1,-1,-1,-1,-1,-1,-1,-1,-1,-1,-1,-1,-1,-1,-1,-1,-1,-1,-1,-1],"loss_changes":[1.4082998E3,1.5710944E2,2.3719037E2,3.6645447E1,1.1227829E2,4.110211E1,1.8517117E2,3.0771942E1,5.055786E0,4.0509743E1,2.1724083E1,4.3569508E0,1.6529724E1,4.607278E1,4.145877E1,3.8722534E0,1.1735336E1,1.0538483E0,2.0123901E0,3.8099532E0,9.231674E0,7.2648163E0,6.0549545E0,8.3926E-1,1.9753604E0,3.273468E0,7.1588745E0,9.29735E0,1.6124298E1,8.72467E0,1.5393433E1,4.9827576E-1,1.4328766E0,7.21521E0,3.34094E0,2.6045227E-1,4.3092346E-1,3.0059052E-1,4.3336868E-1,4.7989082E-1,1.3995863E0,2.5222197E0,3.8318024E0,8.650055E-1,4.340828E0,1.6445551E0,8.167376E0,3.299521E-1,2.158351E-1,1.1399379E0,6.5089774E-1,1.5787201E0,1.4883099E0,1.6345978E0,9.9194336E-1,2.2790432E0,6.6724477E0,9.057348E0,2.7530289E1,2.0395815E0,3.5278168E0,1.3813705E1,6.571411E0,0E0,0E0,0E0,0E0,0E0,0E0,0E0,0E0,0E0,0E0,0E0,0E0,0E0,0E0,0E0,0E0,0E0,0E0,0E0,0E0,0E0,0E0,0E0,0E0,0E0,0E0,0E0,0E0,0E0,0E0,0E0,0E0,0E0,0E0,0E0,0E0,0E0,0E0,0E0,0E0,0E0,0E0,0E0,0E0,0E0,0E0,0E0,0E0,0E0,0E0,0E0,0E0,0E0,0E0,0E0,0E0,0E0,0E0,0E0,0E0,0E0,0E0,0E0,0E0],"parents":[2147483647,0,0,1,1,2,2,3,3,4,4,5,5,6,6,7,7,8,8,9,9,10,10,11,11,12,12,13,13,14,14,15,15,16,16,17,17,18,18,19,19,20,20,21,21,22,22,23,23,24,24,25,25,26,26,27,27,28,28,29,29,30,30,31,31,32,32,33,33,34,34,35,35,36,36,37,37,38,38,39,39,40,40,41,41,42,42,43,43,44,44,45,45,46,46,47,47,48,48,49,49,50,50,51,51,52,52,53,53,54,54,55,55,56,56,57,57,58,58,59,59,60,60,61,61,62,62],"right_children":[2,4,6,8,10,12,14,16,18,20,22,24,26,28,30,32,34,36,38,40,42,44,46,48,50,52,54,56,58,60,62,64,66,68,70,72,74,76,78,80,82,84,86,88,90,92,94,96,98,100,102,104,106,108,110,112,114,116,118,120,122,124,126,-1,-1,-1,-1,-1,-1,-1,-1,-1,-1,-1,-1,-1,-1,-1,-1,-1,-1,-1,-1,-1,-1,-1,-1,-1,-1,-1,-1,-1,-1,-1,-1,-1,-1,-1,-1,-1,-1,-1,-1,-1,-1,-1,-1,-1,-1,-1,-1,-1,-1,-1,-1,-1,-1,-1,-1,-1,-1,-1,-1,-1,-1,-1,-1],"split_conditions":[7.4777994E0,5.5477996E0,2E0,4E0,2E0,2.7463755E-1,9.977799E0,1.9262505E-1,4.1477995E0,2.542042E-1,3.6058757E-1,1.7285421E-1,8.557799E0,3.428709E-1,4.1138756E-1,1.0116255E-1,3.9241672E-1,2.3684588E-1,2.542042E-1,1.6902505E-1,6.5177994E0,1.6902505E-1,3E0,2.2486018E-1,2.2499588E-1,1.9E1,4.8592088E-1,2.0183338E-1,3E0,2.2162506E-1,3E0,5.6008387E-2,2E0,2E0,3.6572594E1,3.2677994E0,6.87726E1,1.0894172E-1,3.6437088E-1,1.1169172E-1,1.3799588E-1,4.799853E-1,4.8929173E-1,6.5977993E0,4E0,1.2844E4,4E0,4E0,2.448E3,2.1789588E-1,5E0,6.498E3,7.836515E0,8.272595E0,9.927799E0,1.1687089E-1,8.637799E0,1.2734E4,4E0,1.1169172E-1,1.3536515E1,2.4867E4,1.18578E1,-1.1092309E-2,-9.666674E-3,-7.013529E-3,-8.586417E-3,-4.135473E-3,-6.853518E-3,-3.2586653E-3,4.0664195E-4,-1.24959E-2,-1.1420824E-2,-1.0561789E-2,-3.9926395E-3,-1.1207965E-2,-9.669083E-3,-8.207256E-3,-6.3530686E-3,-6.5113143E-3,-3.7234307E-3,1.5913611E-3,-1.621263E-3,3.393794E-3,8.431724E-3,7.885648E-3,1.3242078E-2,-8.154746E-3,-6.381499E-3,-3.7511175E-3,-6.092599E-3,-2.4817963E-3,-6.155771E-3,2.318232E-3,-2.6485422E-3,6.144259E-3,-3.4357344E-3,-2.036712E-4,-1.1121224E-2,2.3386644E-3,8.598974E-3,-4.1911723E-3,2.8193512E-3,1.14893345E-2,1.5190126E-2,6.630196E-3,1.2025676E-2,1.9872464E-2,1.5670463E-2,1.9043757E-2,2.127841E-2,-6.6881427E-3,-2.6451966E-3,-1.0284093E-3,2.4775795E-3,3.9259847E-3,-1.8785015E-3,9.248232E-3,2.8852846E-3,-8.936862E-3,1.6828406E-3,6.212403E-3,9.662719E-3,1.1209629E-2,2.4498343E-3,1.2570731E-2,1.629926E-2],"split_indices":[6,6,1,1,1,16,6,16,6,16,16,16,6,16,16,16,16,16,16,16,6,16,1,17,14,10,16,16,1,16,1,16,1,1,4,6,4,16,16,16,14,16,16,6,1,0,1,11,0,16,12,0,9,4,6,16,6,0,1,16,9,0,6,0,0,0,0,0,0,0,0,0,0,0,0,0,0,0,0,0,0,0,0,0,0,0,0,0,0,0,0,0,0,0,0,0,0,0,0,0,0,0,0,0,0,0,0,0,0,0,0,0,0,0,0,0,0,0,0,0,0,0,0,0,0,0,0],"split_type":[0,0,0,0,0,0,0,0,0,0,0,0,0,0,0,0,0,0,0,0,0,0,0,0,0,0,0,0,0,0,0,0,0,0,0,0,0,0,0,0,0,0,0,0,0,0,0,0,0,0,0,0,0,0,0,0,0,0,0,0,0,0,0,0,0,0,0,0,0,0,0,0,0,0,0,0,0,0,0,0,0,0,0,0,0,0,0,0,0,0,0,0,0,0,0,0,0,0,0,0,0,0,0,0,0,0,0,0,0,0,0,0,0,0,0,0,0,0,0,0,0,0,0,0,0,0,0],"sum_hessian":[8.9469E4,5.2836E4,3.6633E4,3.0621E4,2.2215E4,7.285E3,2.9348E4,2.2511E4,8.11E3,6.222E3,1.5993E4,6.19E2,6.666E3,1.7255E4,1.2093E4,9.362E3,1.3149E4,4.499E3,3.611E3,2.198E3,4.024E3,1.1462E4,4.531E3,1.02E2,5.17E2,2.284E3,4.382E3,7.71E3,9.545E3,4.21E3,7.883E3,3.311E3,6.051E3,1.0134E4,3.015E3,2.955E3,1.544E3,2.129E3,1.482E3,8.36E2,1.362E3,1.924E3,2.1E3,3.012E3,8.45E3,1.222E3,3.309E3,4.6E1,5.6E1,3.82E2,1.35E2,1.74E3,5.44E2,1.962E3,2.42E3,2.093E3,5.617E3,2.706E3,6.839E3,6.33E2,3.577E3,2.985E3,4.898E3,9.15E2,2.396E3,2.534E3,3.517E3,4.123E3,6.011E3,2.139E3,8.76E2,1.859E3,1.096E3,1.517E3,2.7E1,4.57E2,1.672E3,9.82E2,5E2,2.08E2,6.28E2,6.29E2,7.33E2,1.631E3,2.93E2,1.68E3,4.2E2,1.886E3,1.126E3,5.272E3,3.178E3,6.18E2,6.04E2,1.642E3,1.667E3,1.1E1,3.5E1,5E0,5.1E1,9.9E1,2.83E2,5.5E1,8E1,3.9E2,1.35E3,2.18E2,3.26E2,2.88E2,1.674E3,9.61E2,1.459E3,4.42E2,1.651E3,3.326E3,2.291E3,1.468E3,1.238E3,3.165E3,3.674E3,4.8E1,5.85E2,2.52E3,1.057E3,2.432E3,5.53E2,2.825E3,2.073E3],"tree_param":{"num_deleted":"0","num_feature":"22","num_nodes":"127","size_leaf_vector":"1"}},{"base_weights":[-1.5821373E-5,-1.0416096E-1,1.3533755E-1,-1.4919443E-1,-5.141325E-2,5.9294414E-2,2.1529631E-1,-1.294976E-1,-2.0359674E-1,4.7053844E-2,-9.092843E-2,2.0674706E-1,2.982514E-2,3.4533077E-1,1.746788E-1,-1.622669E-1,-9.714426E-2,-2.2705255E-1,-1.8489085E-1,-3.9079003E-2,1.0575118E-1,-1.1304274E-1,-3.7788443E-2,3.737755E-2,2.4587639E-1,-1.6315125E-2,1.0113147E-1,2.762107E-1,3.7342706E-1,1.0306475E-1,2.3647335E-1,-1.8897335E-1,-1.4717655E-1,-1.0993522E-1,-4.2213593E-2,-2.351662E-1,-2.0570098E-1,-2.0096652E-1,-1.5737937E-1,-8.143587E-2,3.1505036E-3,5.1836792E-2,1.43363E-1,-1.4758313E-1,-9.697326E-2,-9.35711E-2,-1.654824E-2,-5.4299574E-2,9.052998E-2,2.8485042E-1,2.031194E-1,-6.7073084E-2,2.7896308E-3,2.0906236E-2,1.2577741E-1,3.0729893E-1,2.3523957E-1,3.386169E-1,3.9938787E-1,3.1035474E-2,1.2889378E-1,1.8289688E-1,2.6873857E-1,-1.0720004E-2,-9.156064E-3,-6.5628807E-3,-7.9523465E-3,-4.0205093E-3,-6.4500207E-3,-2.9660983E-3,2.5727367E-4,-1.1799802E-2,-9.636943E-3,-1.0323799E-2,1.2139979E-2,-1.0449683E-2,-9.134135E-3,-9.891629E-3,-7.4952873E-3,-7.3616602E-3,-3.5104738E-3,2.7564114E-3,-7.459184E-4,8.4075343E-4,3.8722306E-3,5.2289693E-3,8.825933E-3,-7.899058E-3,-5.9198383E-3,-3.9720195E-3,-6.261024E-3,-3.018428E-3,-6.4513506E-3,1.591779E-3,-3.2944046E-3,-1.8499298E-3,-1.1705495E-2,6.17048E-3,-2.7104241E-3,1.1485666E-2,1.5675591E-2,5.4468242E-3,1.1193333E-2,-6.576095E-3,-2.7119052E-3,-1.3224457E-3,1.5792325E-3,-4.7790017E-3,2.052996E-3,7.1474346E-3,2.433501E-3,1.3951701E-2,1.7054593E-2,4.4727237E-3,1.2364368E-2,1.7803878E-2,1.4618577E-2,2.0757902E-2,1.8951114E-2,4.2243865E-3,-2.9712806E-3,9.514599E-3,3.8018122E-3,1.0690591E-2,2.2311232E-3,1.1916665E-2,1.5430393E-2],"categories":[],"categories_nodes":[],"categories_segments":[],"categories_sizes":[],"default_left":[0,0,0,0,0,0,0,0,0,0,0,0,0,0,0,0,0,0,0,0,0,0,0,0,0,0,0,0,0,0,0,0,0,0,0,0,0,0,0,0,0,0,0,0,0,0,0,0,0,0,0,0,0,0,0,0,0,0,0,0,0,0,0,0,0,0,0,0,0,0,0,0,0,0,0,0,0,0,0,0,0,0,0,0,0,0,0,0,0,0,0,0,0,0,0,0,0,0,0,0,0,0,0,0,0,0,0,0,0,0,0,0,0,0,0,0,0,0,0,0,0,0,0,0,0,0,0],"id":6,"left_children":[1,3,5,7,9,11,13,15,17,19,21,23,25,27,29,31,33,35,37,39,41,43,45,47,49,51,53,55,57,59,61,63,65,67,69,71,73,75,77,79,81,83,85,87,89,91,93,95,97,99,101,103,105,107,109,111,113,115,117,119,121,123,125,-1,-1,-1,-1,-1,-1,-1,-1,-1,-1,-1,-1,-1,-1,-1,-1,-1,-1,-1,-1,-1,-1,-1,-1,-1,-1,-1,-1,-1,-1,-1,-1,-1,-1,-1,-1,-1,-1,-1,-1,-1,-1,-1,-1,-1,-1,-1,-1,-1,-1,-1,-1,-1,-1,-1,-1,-1,-1,-1,-1,-1,-1,-1,-1],"loss_changes":[1.2621207E3,1.2019061E2,2.367182E2,2.9222778E1,9.0686646E1,8.671342E1,1.00175354E2,2.1233734E1,3.1407776E0,3.375139E1,1.9540878E1,2.2020004E1,5.4729057E1,8.666992E0,6.3979584E1,3.984558E0,7.0833435E0,5.084076E-1,1.7555847E0,4.8405046E0,8.043011E0,6.5041656E0,5.7911105E0,3.0504541E0,4.441452E0,9.794343E0,1.2918541E1,1.5950089E0,2.763855E0,1.2462845E1,1.3370361E1,4.9508667E-1,1.1820679E0,4.595276E0,1.5454264E0,3.6254883E-2,3.6052704E-1,3.3563232E-1,4.2232895E-1,9.876013E-1,1.274349E0,1.4632211E0,2.9879608E0,1.1123734E0,3.9609985E0,1.5791111E0,8.457739E0,7.06844E-1,1.8912323E0,2.1562119E0,2.4982758E0,2.2775917E0,6.1797194E0,3.6122274E0,6.6118774E0,6.125946E-1,9.772644E-1,1.0077972E0,4.3103027E-1,8.563588E0,1.5991646E1,1.24769745E1,5.797333E0,0E0,0E0,0E0,0E0,0E0,0E0,0E0,0E0,0E0,0E0,0E0,0E0,0E0,0E0,0E0,0E0,0E0,0E0,0E0,0E0,0E0,0E0,0E0,0E0,0E0,0E0,0E0,0E0,0E0,0E0,0E0,0E0,0E0,0E0,0E0,0E0,0E0,0E0,0E0,0E0,0E0,0E0,0E0,0E0,0E0,0E0,0E0,0E0,0E0,0E0,0E0,0E0,0E0,0E0,0E0,0E0,0E0,0E0,0E0,0E0,0E0,0E0,0E0,0E0],"parents":[2147483647,0,0,1,1,2,2,3,3,4,4,5,5,6,6,7,7,8,8,9,9,10,10,11,11,12,12,13,13,14,14,15,15,16,16,17,17,18,18,19,19,20,20,21,21,22,22,23,23,24,24,25,25,26,26,27,27,28,28,29,29,30,30,31,31,32,32,33,33,34,34,35,35,36,36,37,37,38,38,39,39,40,40,41,41,42,42,43,43,44,44,45,45,46,46,47,47,48,48,49,49,50,50,51,51,52,52,53,53,54,54,55,55,56,56,57,57,58,58,59,59,60,60,61,61,62,62],"right_children":[2,4,6,8,10,12,14,16,18,20,22,24,26,28,30,32,34,36,38,40,42,44,46,48,50,52,54,56,58,60,62,64,66,68,70,72,74,76,78,80,82,84,86,88,90,92,94,96,98,100,102,104,106,108,110,112,114,116,118,120,122,124,126,-1,-1,-1,-1,-1,-1,-1,-1,-1,-1,-1,-1,-1,-1,-1,-1,-1,-1,-1,-1,-1,-1,-1,-1,-1,-1,-1,-1,-1,-1,-1,-1,-1,-1,-1,-1,-1,-1,-1,-1,-1,-1,-1,-1,-1,-1,-1,-1,-1,-1,-1,-1,-1,-1,-1,-1,-1,-1,-1,-1,-1,-1,-1,-1],"split_conditions":[7.2577996E0,5.2377996E0,4.1590422E-1,4E0,2E0,2E0,2E0,2.1626672E-1,3.5477993E0,2.6136255E-1,3.4797087E-1,2.595792E-1,9.2478E0,8.4978E0,9.977799E0,1.0894172E-1,4.205667E-1,2.6136255E-1,2.595792E-1,1.8875839E-1,6.1677995E0,1.7491256E-1,3E0,2.0368755E-1,2.2249588E-1,2.2329588E-1,2.4733339E-1,1.2E1,5.4039174E-1,3E0,3E0,5.0520886E-2,2E0,2E0,7.0710677E-1,7.336515E0,1.1036515E1,4.7477994E0,-8.660254E-1,1.0116255E-1,8.009589E-2,5.736515E0,7.036515E0,6.5977993E0,4E0,1.2844E4,4E0,6.065389E0,2.771959E-1,8.1078E0,3.1506255E-1,1.1687089E-1,8.137799E0,1.3930422E-1,4E0,5.209501E-1,6.736515E0,5.271959E-1,1.5688E4,1.6453E4,4E0,2.4867E4,1.18578E1,-1.0720004E-2,-9.156064E-3,-6.5628807E-3,-7.9523465E-3,-4.0205093E-3,-6.4500207E-3,-2.9660983E-3,2.5727367E-4,-1.1799802E-2,-9.636943E-3,-1.0323799E-2,1.2139979E-2,-1.0449683E-2,-9.134135E-3,-9.891629E-3,-7.4952873E-3,-7.3616602E-3,-3.5104738E-3,2.7564114E-3,-7.459184E-4,8.4075343E-4,3.8722306E-3,5.2289693E-3,8.825933E-3,-7.899058E-3,-5.9198383E-3,-3.9720195E-3,-6.261024E-3,-3.018428E-3,-6.4513506E-3,1.591779E-3,-3.2944046E-3,-1.8499298E-3,-1.1705495E-2,6.17048E-3,-2.7104241E-3,1.1485666E-2,1.5675591E-2,5.4468242E-3,1.1193333E-2,-6.576095E-3,-2.7119052E-3,-1.3224457E-3,1.5792325E-3,-4.7790017E-3,2.052996E-3,7.1474346E-3,2.433501E-3,1.3951701E-2,1.7054593E-2,4.4727237E-3,1.2364368E-2,1.7803878E-2,1.4618577E-2,2.0757902E-2,1.8951114E-2,4.2243865E-3,-2.9712806E-3,9.514599E-3,3.8018122E-3,1.0690591E-2,2.2311232E-3,1.1916665E-2,1.5430393E-2],"split_indices":[6,6,16,1,1,1,1,16,6,16,16,16,6,6,6,16,16,16,16,16,6,16,1,16,14,16,16,10,16,1,1,16,1,1,21,9,9,6,21,16,14,9,9,6,1,0,1,5,14,6,16,16,6,16,1,16,9,14,0,0,1,0,6,0,0,0,0,0,0,0,0,0,0,0,0,0,0,0,0,0,0,0,0,0,0,0,0,0,0,0,0,0,0,0,0,0,0,0,0,0,0,0,0,0,0,0,0,0,0,0,0,0,0,0,0,0,0,0,0,0,0,0,0,0,0,0,0],"split_type":[0,0,0,0,0,0,0,0,0,0,0,0,0,0,0,0,0,0,0,0,0,0,0,0,0,0,0,0,0,0,0,0,0,0,0,0,0,0,0,0,0,0,0,0,0,0,0,0,0,0,0,0,0,0,0,0,0,0,0,0,0,0,0,0,0,0,0,0,0,0,0,0,0,0,0,0,0,0,0,0,0,0,0,0,0,0,0,0,0,0,0,0,0,0,0,0,0,0,0,0,0,0,0,0,0,0,0,0,0,0,0,0,0,0,0,0,0,0,0,0,0,0,0,0,0,0,0],"sum_hessian":[8.9533E4,5.06E4,3.8933E4,2.7295E4,2.3305E4,1.9956E4,1.8977E4,2.0042E4,7.253E3,6.674E3,1.6631E4,3.323E3,1.6633E4,4.515E3,1.4462E4,9.955E3,1.0087E4,3.213E3,4.04E3,2.705E3,3.969E3,1.1743E4,4.888E3,6.24E2,2.699E3,1.0099E4,6.534E3,1.308E3,3.207E3,6.7E3,7.762E3,3.59E3,6.365E3,8.181E3,1.906E3,2.321E3,8.92E2,2.546E3,1.494E3,1.35E3,1.355E3,1.632E3,2.337E3,3.726E3,8.017E3,1.347E3,3.541E3,2.29E2,3.95E2,1.409E3,1.29E3,2.761E3,7.338E3,1.536E3,4.998E3,7.4E2,5.68E2,1.376E3,1.831E3,1.769E3,4.931E3,2.92E3,4.842E3,6.65E2,2.925E3,2.724E3,3.641E3,3.212E3,4.969E3,1.4E3,5.06E2,2.272E3,4.9E1,8.91E2,1E0,1.762E3,7.84E2,2.29E2,1.265E3,1.95E2,1.155E3,3.49E2,1.006E3,6.9E2,9.42E2,1.079E3,1.258E3,2.744E3,9.82E2,4.949E3,3.068E3,6.97E2,6.5E2,1.788E3,1.753E3,2.1E2,1.9E1,3.22E2,7.3E1,4.85E2,9.24E2,2.34E2,1.056E3,4.57E2,2.304E3,3.641E3,3.697E3,2.26E2,1.31E3,4.087E3,9.11E2,4.08E2,3.32E2,4.4E1,5.24E2,9.94E2,3.82E2,1.021E3,8.1E2,1.112E3,6.57E2,2.28E3,2.651E3,2.386E3,5.34E2,2.751E3,2.091E3],"tree_param":{"num_deleted":"0","num_feature":"22","num_nodes":"127","size_leaf_vector":"1"}},{"base_weights":[2.1304056E-4,-8.838196E-2,1.4571421E-1,-1.3126417E-1,-2.0951115E-2,2.917886E-1,1.10287E-1,-1.5277037E-1,-8.145336E-2,9.045986E-2,-6.2580526E-2,6.0744103E-2,3.0987847E-1,4.378959E-2,1.8079545E-1,-1.3618183E-1,-1.9487566E-1,-1.5713189E-2,-1.0668279E-1,-1.7761214E-2,1.4379348E-1,-8.598058E-2,-9.173484E-3,-8.831982E-2,1.05059564E-1,2.777829E-1,3.6801168E-1,-8.116364E-3,8.447598E-2,1.0829518E-1,2.2134122E-1,-1.6634114E-1,-1.17236204E-1,-2.1715777E-1,-1.7383128E-1,-6.403167E-2,2.4283525E-2,-8.7290384E-2,-1.4967658E-1,-7.801518E-2,1.8475141E-2,1.1037924E-1,1.9953728E-1,-1.2704094E-1,-7.272749E-2,-6.898331E-2,1.2218724E-2,1.6708665E-2,-1.7787252E-1,1.5843873E-1,-1.6851849E-3,2.3496372E-1,3.0299467E-1,3.1880805E-1,3.8440847E-1,-5.766239E-2,9.528372E-3,2.2119831E-2,1.08923085E-1,-1.2397864E-2,1.22480586E-1,1.7127788E-1,2.514413E-1,-9.256305E-3,-7.7215047E-3,-4.6771364E-3,-6.7410707E-3,-1.1168106E-2,-1.0221365E-2,-9.973522E-3,-8.361184E-3,-3.4886245E-3,1.1473711E-2,2.301964E-3,-1.631487E-3,-5.931591E-3,-2.7465883E-3,-9.0020625E-3,-5.8169006E-3,-6.8515497E-3,-3.3782278E-3,1.940092E-3,-1.3345198E-3,4.7919564E-3,9.542386E-3,8.819729E-3,1.2502469E-2,-7.7635087E-3,-5.771928E-3,-2.828176E-3,-5.032898E-3,-1.5179329E-3,-5.53672E-3,3.001161E-3,-1.7487811E-3,9.848098E-3,-1.8227961E-3,-9.495997E-3,1.9135583E-3,8.626289E-3,1.2940618E-3,4.506852E-3,-3.9989683E-3,8.72353E-3,1.2604377E-2,1.8969474E-2,1.4623532E-2,1.6651211E-2,1.3557973E-2,1.4321493E-2,1.9388733E-2,-5.2837525E-3,-1.8453834E-3,1.4601793E-3,-2.0038781E-3,3.6487188E-3,-1.8246372E-3,8.536099E-3,2.7907675E-3,-7.4730343E-3,2.942269E-4,6.7720227E-3,2.233461E-3,1.0020707E-2,1.9947526E-3,1.0618473E-2,1.4155606E-2],"categories":[],"categories_nodes":[],"categories_segments":[],"categories_sizes":[],"default_left":[0,0,0,0,0,0,0,0,0,0,0,0,0,0,0,0,0,0,0,0,0,0,0,0,0,0,0,0,0,0,0,0,0,0,0,0,0,0,0,0,0,0,0,0,0,0,0,0,0,0,0,0,0,0,0,0,0,0,0,0,0,0,0,0,0,0,0,0,0,0,0,0,0,0,0,0,0,0,0,0,0,0,0,0,0,0,0,0,0,0,0,0,0,0,0,0,0,0,0,0,0,0,0,0,0,0,0,0,0,0,0,0,0,0,0,0,0,0,0,0,0,0,0,0,0,0,0],"id":7,"left_children":[1,3,5,7,9,11,13,15,17,19,21,23,25,27,29,31,33,35,37,39,41,43,45,47,49,51,53,55,57,59,61,63,65,67,69,71,73,75,77,79,81,83,85,87,89,91,93,95,97,99,101,103,105,107,109,111,113,115,117,119,121,123,125,-1,-1,-1,-1,-1,-1,-1,-1,-1,-1,-1,-1,-1,-1,-1,-1,-1,-1,-1,-1,-1,-1,-1,-1,-1,-1,-1,-1,-1,-1,-1,-1,-1,-1,-1,-1,-1,-1,-1,-1,-1,-1,-1,-1,-1,-1,-1,-1,-1,-1,-1,-1,-1,-1,-1,-1,-1,-1,-1,-1,-1,-1,-1,-1],"loss_changes":[1.1554945E3,1.610989E2,1.7552478E2,3.6469727E1,1.0045952E2,2.7654053E1,1.280104E2,1.6586548E1,1.7035332E1,3.4010117E1,1.970493E1,3.1932917E0,1.1353882E1,2.967874E1,3.8931335E1,9.7317505E0,3.1133423E0,5.5094094E0,6.1758804E0,4.2503066E0,7.3298035E0,5.9571075E0,6.1486683E0,1.0469918E0,2.119903E0,4.2037964E0,1.6370239E0,5.3997726E0,1.2007027E1,8.142464E0,1.2762665E1,1.4441376E0,4.356018E0,2.1182251E-1,5.529938E-1,2.1912985E0,1.9330801E0,5.1839867E0,2.3134537E0,4.4158745E-1,1.117404E0,2.8716583E0,1.6836548E0,8.5788345E-1,3.737423E0,2.0382175E0,7.9887E0,5.055012E-1,1.6350675E-1,4.586358E-1,9.058522E-1,1.4808273E0,1.8901367E0,2.8293228E-1,4.2686462E-1,1.6124053E0,4.4468837E0,6.619852E0,1.8563309E1,1.2563041E0,4.2848053E0,1.2218643E1,6.5044556E0,0E0,0E0,0E0,0E0,0E0,0E0,0E0,0E0,0E0,0E0,0E0,0E0,0E0,0E0,0E0,0E0,0E0,0E0,0E0,0E0,0E0,0E0,0E0,0E0,0E0,0E0,0E0,0E0,0E0,0E0,0E0,0E0,0E0,0E0,0E0,0E0,0E0,0E0,0E0,0E0,0E0,0E0,0E0,0E0,0E0,0E0,0E0,0E0,0E0,0E0,0E0,0E0,0E0,0E0,0E0,0E0,0E0,0E0,0E0,0E0,0E0,0E0,0E0,0E0],"parents":[2147483647,0,0,1,1,2,2,3,3,4,4,5,5,6,6,7,7,8,8,9,9,10,10,11,11,12,12,13,13,14,14,15,15,16,16,17,17,18,18,19,19,20,20,21,21,22,22,23,23,24,24,25,25,26,26,27,27,28,28,29,29,30,30,31,31,32,32,33,33,34,34,35,35,36,36,37,37,38,38,39,39,40,40,41,41,42,42,43,43,44,44,45,45,46,46,47,47,48,48,49,49,50,50,51,51,52,52,53,53,54,54,55,55,56,56,57,57,58,58,59,59,60,60,61,61,62,62],"right_children":[2,4,6,8,10,12,14,16,18,20,22,24,26,28,30,32,34,36,38,40,42,44,46,48,50,52,54,56,58,60,62,64,66,68,70,72,74,76,78,80,82,84,86,88,90,92,94,96,98,100,102,104,106,108,110,112,114,116,118,120,122,124,126,-1,-1,-1,-1,-1,-1,-1,-1,-1,-1,-1,-1,-1,-1,-1,-1,-1,-1,-1,-1,-1,-1,-1,-1,-1,-1,-1,-1,-1,-1,-1,-1,-1,-1,-1,-1,-1,-1,-1,-1,-1,-1,-1,-1,-1,-1,-1,-1,-1,-1,-1,-1,-1,-1,-1,-1,-1,-1,-1,-1,-1,-1,-1,-1],"split_conditions":[7.7277994E0,5.8377995E0,2E0,2.9636672E-1,2E0,2.7463755E-1,9.767799E0,4E0,2E0,2.6136255E-1,3.6264172E-1,1.9816256E-1,5.4039174E-1,3.428709E-1,4.1138756E-1,1.4380005E-1,3.9877994E0,4.467799E0,4E0,1.7285421E-1,7.0477996E0,1.6902505E-1,3E0,2.3118278E-1,2.1199588E-1,8.637799E0,9.0278E0,2.0012505E-1,3E0,2.0183338E-1,3E0,8.731672E-2,2E0,3.2677994E0,1.1914172E-1,5.6603336E-1,2.5190864E0,3E0,4.6077995E0,9.603755E-2,2.4119589E-1,4.991292E-1,4.6056256E-1,1.0375422E-1,4E0,1.2844E4,4E0,4E0,6.105959E-1,4.0265602E-1,4E0,6.716E3,1.86796E1,2.0052E4,5.2057316E1,1.2830006E-1,4E0,1.2734E4,4E0,1.1427089E-1,4E0,2.4867E4,1.1187799E1,-9.256305E-3,-7.7215047E-3,-4.6771364E-3,-6.7410707E-3,-1.1168106E-2,-1.0221365E-2,-9.973522E-3,-8.361184E-3,-3.4886245E-3,1.1473711E-2,2.301964E-3,-1.631487E-3,-5.931591E-3,-2.7465883E-3,-9.0020625E-3,-5.8169006E-3,-6.8515497E-3,-3.3782278E-3,1.940092E-3,-1.3345198E-3,4.7919564E-3,9.542386E-3,8.819729E-3,1.2502469E-2,-7.7635087E-3,-5.771928E-3,-2.828176E-3,-5.032898E-3,-1.5179329E-3,-5.53672E-3,3.001161E-3,-1.7487811E-3,9.848098E-3,-1.8227961E-3,-9.495997E-3,1.9135583E-3,8.626289E-3,1.2940618E-3,4.506852E-3,-3.9989683E-3,8.72353E-3,1.2604377E-2,1.8969474E-2,1.4623532E-2,1.6651211E-2,1.3557973E-2,1.4321493E-2,1.9388733E-2,-5.2837525E-3,-1.8453834E-3,1.4601793E-3,-2.0038781E-3,3.6487188E-3,-1.8246372E-3,8.536099E-3,2.7907675E-3,-7.4730343E-3,2.942269E-4,6.7720227E-3,2.233461E-3,1.0020707E-2,1.9947526E-3,1.0618473E-2,1.4155606E-2],"split_indices":[6,6,1,16,1,16,6,1,1,16,16,16,16,16,16,16,6,6,1,16,6,16,1,17,14,6,6,16,1,16,1,16,1,6,16,16,19,1,6,16,14,16,16,16,1,0,1,11,15,17,13,0,2,0,8,16,1,0,1,16,1,0,6,0,0,0,0,0,0,0,0,0,0,0,0,0,0,0,0,0,0,0,0,0,0,0,0,0,0,0,0,0,0,0,0,0,0,0,0,0,0,0,0,0,0,0,0,0,0,0,0,0,0,0,0,0,0,0,0,0,0,0,0,0,0,0,0],"split_type":[0,0,0,0,0,0,0,0,0,0,0,0,0,0,0,0,0,0,0,0,0,0,0,0,0,0,0,0,0,0,0,0,0,0,0,0,0,0,0,0,0,0,0,0,0,0,0,0,0,0,0,0,0,0,0,0,0,0,0,0,0,0,0,0,0,0,0,0,0,0,0,0,0,0,0,0,0,0,0,0,0,0,0,0,0,0,0,0,0,0,0,0,0,0,0,0,0,0,0,0,0,0,0,0,0,0,0,0,0,0,0,0,0,0,0,0,0,0,0,0,0,0,0,0,0,0,0],"sum_hessian":[8.9636E4,5.5713E4,3.3923E4,3.4055E4,2.1658E4,6.62E3,2.7303E4,2.3784E4,1.0271E4,5.891E3,1.5767E4,4.81E2,6.139E3,1.4052E4,1.3251E4,1.7065E4,6.719E3,2.849E3,7.422E3,1.945E3,3.946E3,1.0963E4,4.804E3,1.1E2,3.71E2,3.959E3,2.18E3,6.175E3,7.877E3,4.754E3,8.497E3,6.581E3,1.0484E4,3.259E3,3.46E3,1.29E3,1.559E3,5.117E3,2.305E3,7.3E2,1.215E3,2.469E3,1.477E3,2.673E3,8.29E3,1.265E3,3.539E3,5.1E1,5.9E1,2.47E2,1.24E2,1.471E3,2.488E3,5.5E2,1.63E3,1.621E3,4.554E3,2.219E3,5.658E3,5E2,4.254E3,3.193E3,5.304E3,2.548E3,4.033E3,4.469E3,6.015E3,2.18E3,1.079E3,7.03E2,2.757E3,1.266E3,2.4E1,1.128E3,4.31E2,2.598E3,2.519E3,1.204E3,1.101E3,1.08E2,6.22E2,8.38E2,3.77E2,2.093E3,3.76E2,1.016E3,4.61E2,7.75E2,1.898E3,5.253E3,3.037E3,6.58E2,6.07E2,1.758E3,1.781E3,1.1E1,4E1,5.6E1,3E0,2.23E2,2.4E1,5.7E1,6.7E1,3.27E2,1.144E3,2.97E2,2.191E3,4.19E2,1.31E2,5.7E1,1.573E3,4.88E2,1.133E3,3.261E3,1.293E3,1.188E3,1.031E3,2.614E3,3.044E3,5.8E1,4.42E2,3.646E3,6.08E2,2.613E3,5.8E2,2.378E3,2.926E3],"tree_param":{"num_deleted":"0","num_feature":"22","num_nodes":"127","size_leaf_vector":"1"}},{"base_weights":[-6.02246E-4,-8.426484E-2,1.3717455E-1,-1.23727E-1,-2.0271797E-2,6.1507866E-2,1.9495018E-1,-1.5009256E-1,-8.578281E-2,-7.122678E-2,2.4563735E-2,-5.2539078E-3,9.5234476E-2,1.5307161E-1,2.4468917E-1,-1.7320259E-1,-1.3545974E-1,-9.804449E-2,-2.8784567E-2,-1.1065072E-1,-4.8663665E-2,4.516023E-3,8.292238E-2,-6.9534026E-2,1.666318E-2,7.078676E-2,1.700838E-1,1.3147858E-1,2.0489287E-1,2.2691657E-1,3.0130267E-1,-1.800221E-1,-1.5326546E-1,-1.5016796E-1,-1.1384544E-1,-1.1786013E-1,-7.64708E-2,-3.570121E-2,1.2854701E-1,-1.4086795E-1,-9.776204E-2,-3.34376E-2,-7.804642E-2,2.8318971E-2,-2.5270585E-2,4.1153118E-2,1.0586009E-1,-1.2127623E-1,-4.793041E-2,3.9577935E-2,-3.1998646E-2,1.0090923E-1,3.410525E-2,1.9855365E-1,1.2402592E-1,8.78332E-2,1.5229234E-1,2.4157281E-1,1.7372957E-1,2.6632622E-1,2.1260446E-1,3.2419232E-1,2.6820904E-1,-9.603771E-3,-8.580204E-3,-8.263203E-3,-7.0406585E-3,-7.23619E-3,-8.505138E-3,-5.0101015E-3,-6.4328583E-3,-5.5693313E-3,-7.740459E-3,-3.3898768E-3,-5.606715E-3,-2.8201113E-3,1.0892727E-3,3.8616527E-3,1.3106561E-2,-8.438296E-3,-6.735599E-3,-3.7039113E-3,-5.5633336E-3,-2.3178072E-3,-2.8051605E-4,-5.106929E-3,-3.107317E-3,-1.4945315E-4,2.428488E-3,-3.640843E-4,-2.486319E-3,3.0812272E-3,-8.2046876E-4,-4.3551098E-3,5.533027E-3,3.5256215E-3,-6.258982E-3,4.9342605E-4,-3.12276E-3,-6.6196815E-5,3.5719946E-3,-2.141221E-3,9.82294E-4,3.3018198E-3,6.707447E-3,-5.197069E-4,2.5172152E-3,1.0050817E-2,-7.474976E-3,4.4904016E-3,8.037226E-3,6.255439E-4,5.2476265E-3,9.126852E-3,6.402414E-3,-1.1037767E-2,1.2168827E-2,7.4237213E-3,1.1556002E-2,1.1866972E-2,1.5015753E-2,8.68655E-3,1.1611898E-2,1.068459E-2,1.670246E-2,1.4594666E-2,1.1797484E-2],"categories":[],"categories_nodes":[],"categories_segments":[],"categories_sizes":[],"default_left":[0,0,0,0,0,0,0,0,0,0,0,0,0,0,0,0,0,0,0,0,0,0,0,0,0,0,0,0,0,0,0,0,0,0,0,0,0,0,0,0,0,0,0,0,0,0,0,0,0,0,0,0,0,0,0,0,0,0,0,0,0,0,0,0,0,0,0,0,0,0,0,0,0,0,0,0,0,0,0,0,0,0,0,0,0,0,0,0,0,0,0,0,0,0,0,0,0,0,0,0,0,0,0,0,0,0,0,0,0,0,0,0,0,0,0,0,0,0,0,0,0,0,0,0,0,0,0],"id":8,"left_children":[1,3,5,7,9,11,13,15,17,19,21,23,25,27,29,31,33,35,37,39,41,43,45,47,49,51,53,55,57,59,61,63,65,67,69,71,73,75,77,79,81,83,85,87,89,91,93,95,97,99,101,103,105,107,109,111,113,115,117,119,121,123,125,-1,-1,-1,-1,-1,-1,-1,-1,-1,-1,-1,-1,-1,-1,-1,-1,-1,-1,-1,-1,-1,-1,-1,-1,-1,-1,-1,-1,-1,-1,-1,-1,-1,-1,-1,-1,-1,-1,-1,-1,-1,-1,-1,-1,-1,-1,-1,-1,-1,-1,-1,-1,-1,-1,-1,-1,-1,-1,-1,-1,-1,-1,-1,-1],"loss_changes":[1.0358181E3,1.4118973E2,1.4841125E2,3.4585632E1,4.872757E1,3.3101982E1,4.0062317E1,6.876465E0,9.9081955E0,8.87476E0,1.3273958E1,6.9537497E0,1.786055E1,1.1670868E1,8.783936E0,1.0474548E0,3.956131E0,4.9798737E0,2.7381642E0,1.4011383E0,2.8387241E0,5.989006E0,2.7750683E0,1.3970499E0,4.1058526E0,8.13332E0,3.1276398E0,6.6926117E0,3.4706726E0,3.7223816E0,1.5030365E0,5.6427E-1,2.788353E-1,7.821808E-1,1.0106583E0,1.4372635E0,1.7214928E0,2.8656366E0,7.063565E-1,1.6343117E-1,8.07354E-1,1.5041962E0,8.237591E-1,2.9768333E0,1.6502659E0,1.214749E0,1.743679E0,2.850709E-1,7.452681E-1,3.2620382E0,6.600107E-1,4.677635E0,2.4010932E0,1.302063E0,1.1427383E0,3.0753574E0,3.6407013E0,1.2286911E0,2.3789444E0,1.6834106E0,3.7147064E0,1.2748566E0,5.912552E-1,0E0,0E0,0E0,0E0,0E0,0E0,0E0,0E0,0E0,0E0,0E0,0E0,0E0,0E0,0E0,0E0,0E0,0E0,0E0,0E0,0E0,0E0,0E0,0E0,0E0,0E0,0E0,0E0,0E0,0E0,0E0,0E0,0E0,0E0,0E0,0E0,0E0,0E0,0E0,0E0,0E0,0E0,0E0,0E0,0E0,0E0,0E0,0E0,0E0,0E0,0E0,0E0,0E0,0E0,0E0,0E0,0E0,0E0,0E0,0E0,0E0,0E0,0E0,0E0],"parents":[2147483647,0,0,1,1,2,2,3,3,4,4,5,5,6,6,7,7,8,8,9,9,10,10,11,11,12,12,13,13,14,14,15,15,16,16,17,17,18,18,19,19,20,20,21,21,22,22,23,23,24,24,25,25,26,26,27,27,28,28,29,29,30,30,31,31,32,32,33,33,34,34,35,35,36,36,37,37,38,38,39,39,40,40,41,41,42,42,43,43,44,44,45,45,46,46,47,47,48,48,49,49,50,50,51,51,52,52,53,53,54,54,55,55,56,56,57,57,58,58,59,59,60,60,61,61,62,62],"right_children":[2,4,6,8,10,12,14,16,18,20,22,24,26,28,30,32,34,36,38,40,42,44,46,48,50,52,54,56,58,60,62,64,66,68,70,72,74,76,78,80,82,84,86,88,90,92,94,96,98,100,102,104,106,108,110,112,114,116,118,120,122,124,126,-1,-1,-1,-1,-1,-1,-1,-1,-1,-1,-1,-1,-1,-1,-1,-1,-1,-1,-1,-1,-1,-1,-1,-1,-1,-1,-1,-1,-1,-1,-1,-1,-1,-1,-1,-1,-1,-1,-1,-1,-1,-1,-1,-1,-1,-1,-1,-1,-1,-1,-1,-1,-1,-1,-1,-1,-1,-1,-1,-1,-1,-1,-1,-1],"split_conditions":[7.7277994E0,5.8777995E0,3.9621672E-1,2.542042E-1,2.875084E-1,2.595792E-1,1.1936515E1,1.3047922E-1,4.4469172E-1,1.7689589E-1,4.6320838E-1,1.6505839E-1,1.2336515E1,5.706751E-1,6.537834E-1,4.7077994E0,4.6077995E0,4.4977994E0,9.436515E0,1.1169172E-1,2.7439588E-1,3.803959E-1,6.6877995E0,1.1169172E-1,2.3559588E-1,2.948959E-1,2.981959E-1,8.736515E0,2.3805168E2,3.011959E-1,2.870517E2,8.087089E-2,9.603755E-2,3.338959E-1,1.7079589E-1,6.551959E-1,5.836959E-1,7.0710677E-1,1.0936515E1,6.590005E-2,8.199589E-2,7.0777993E0,2.3343755E-1,6.6577992E0,6.105959E-1,4.505389E0,-1.1203998E0,3.8664204E1,3.0395886E-2,9.536515E0,6.745389E0,9.636515E0,3.113851E-1,6.113886E-1,3.513709E-1,2.18796E1,4.0819588E-1,5.236515E0,6.7185366E-1,4.8592088E-1,4.9575004E-1,6.605168E1,1.1092E4,-9.603771E-3,-8.580204E-3,-8.263203E-3,-7.0406585E-3,-7.23619E-3,-8.505138E-3,-5.0101015E-3,-6.4328583E-3,-5.5693313E-3,-7.740459E-3,-3.3898768E-3,-5.606715E-3,-2.8201113E-3,1.0892727E-3,3.8616527E-3,1.3106561E-2,-8.438296E-3,-6.735599E-3,-3.7039113E-3,-5.5633336E-3,-2.3178072E-3,-2.8051605E-4,-5.106929E-3,-3.107317E-3,-1.4945315E-4,2.428488E-3,-3.640843E-4,-2.486319E-3,3.0812272E-3,-8.2046876E-4,-4.3551098E-3,5.533027E-3,3.5256215E-3,-6.258982E-3,4.9342605E-4,-3.12276E-3,-6.6196815E-5,3.5719946E-3,-2.141221E-3,9.82294E-4,3.3018198E-3,6.707447E-3,-5.197069E-4,2.5172152E-3,1.0050817E-2,-7.474976E-3,4.4904016E-3,8.037226E-3,6.255439E-4,5.2476265E-3,9.126852E-3,6.402414E-3,-1.1037767E-2,1.2168827E-2,7.4237213E-3,1.1556002E-2,1.1866972E-2,1.5015753E-2,8.68655E-3,1.1611898E-2,1.068459E-2,1.670246E-2,1.4594666E-2,1.1797484E-2],"split_indices":[6,6,16,16,16,16,9,16,16,16,16,16,9,16,16,6,6,6,9,16,14,14,6,16,14,14,14,9,7,14,7,16,16,14,14,14,14,21,9,16,14,6,16,6,14,5,2,3,14,9,5,9,16,17,16,2,14,9,16,16,16,7,0,0,0,0,0,0,0,0,0,0,0,0,0,0,0,0,0,0,0,0,0,0,0,0,0,0,0,0,0,0,0,0,0,0,0,0,0,0,0,0,0,0,0,0,0,0,0,0,0,0,0,0,0,0,0,0,0,0,0,0,0,0,0,0,0],"split_type":[0,0,0,0,0,0,0,0,0,0,0,0,0,0,0,0,0,0,0,0,0,0,0,0,0,0,0,0,0,0,0,0,0,0,0,0,0,0,0,0,0,0,0,0,0,0,0,0,0,0,0,0,0,0,0,0,0,0,0,0,0,0,0,0,0,0,0,0,0,0,0,0,0,0,0,0,0,0,0,0,0,0,0,0,0,0,0,0,0,0,0,0,0,0,0,0,0,0,0,0,0,0,0,0,0,0,0,0,0,0,0,0,0,0,0,0,0,0,0,0,0,0,0,0,0,0,0],"sum_hessian":[8.986E4,5.591E4,3.395E4,3.4583E4,2.1327E4,1.47E4,1.925E4,2.0403E4,1.418E4,9.982E3,1.1345E4,4.934E3,9.766E3,1.0453E4,8.797E3,7.906E3,1.2497E4,1.1669E4,2.511E3,3.632E3,6.35E3,8.445E3,2.9E3,1.254E3,3.68E3,7.363E3,2.403E3,7.381E3,3.072E3,6.699E3,2.098E3,5.885E3,2.021E3,7.433E3,5.064E3,6.08E3,5.589E3,2.406E3,1.05E2,1.083E3,2.549E3,4.184E3,2.166E3,4.694E3,3.751E3,1.029E3,1.871E3,3.68E2,8.86E2,2.502E3,1.178E3,4.042E3,3.321E3,1.483E3,9.2E2,2.385E3,4.996E3,1.408E3,1.664E3,1.78E3,4.919E3,1.235E3,8.63E2,2.411E3,3.474E3,1.023E3,9.98E2,5.845E3,1.588E3,2.64E3,2.424E3,5.177E3,9.03E2,4.498E3,1.091E3,1.769E3,6.37E2,7.7E1,2.8E1,1.91E2,8.92E2,9.28E2,1.621E3,2.857E3,1.327E3,8.59E2,1.307E3,1.844E3,2.85E3,2.162E3,1.589E3,7.59E2,2.7E2,4.5E1,1.826E3,7E0,3.61E2,1.78E2,7.08E2,1.096E3,1.406E3,9.74E2,2.04E2,1.974E3,2.068E3,8.88E2,2.433E3,1.473E3,1E1,4.78E2,4.42E2,4.42E2,1.943E3,2.22E3,2.776E3,5E0,1.403E3,1.158E3,5.06E2,9.65E2,8.15E2,1.654E3,3.265E3,1.03E2,1.132E3,4.93E2,3.7E2],"tree_param":{"num_deleted":"0","num_feature":"22","num_nodes":"127","size_leaf_vector":"1"}},{"base_weights":[3.5976863E-4,-9.157139E-2,1.1537184E-1,-1.2903333E-1,-4.7727436E-2,2.4873689E-1,8.1543036E-2,-1.10849306E-1,-1.7832872E-1,4.009732E-2,-8.242423E-2,4.9988534E-2,2.7177367E-1,1.6764874E-2,1.5670447E-1,-1.2896469E-1,-6.389672E-2,-1.9788297E-1,-1.6273615E-1,-3.0797128E-2,8.9893E-2,-9.9058665E-2,-3.175235E-2,-2.3438748E-2,1.0506961E-1,2.1427454E-1,3.068592E-1,-1.0825927E-2,7.6541826E-2,9.407137E-2,1.9381145E-1,-1.557578E-1,-1.14387445E-1,-2.8994756E-2,-8.1339754E-2,-1.9809116E-1,1.1733867E-2,-1.760993E-1,-1.3784286E-1,-7.277326E-2,-1.492591E-3,4.6229634E-2,1.2369439E-1,-1.3049358E-1,-8.723819E-2,-8.133013E-2,-1.3304598E-2,4.0874995E-2,-8.1843644E-2,4.867587E-2,1.5828532E-1,1.8157436E-1,2.4313374E-1,2.6456177E-1,3.3614656E-1,-5.9838954E-2,4.270156E-3,9.085347E-3,1.0033476E-1,1.6852504E-3,1.09337546E-1,2.3868686E-1,1.6327691E-1,-8.575726E-3,-7.2868513E-3,-4.8205093E-3,-6.3785906E-3,-1.658498E-3,1.3042589E-2,-5.400005E-3,-2.5971723E-3,-1.02733765E-2,-9.1992E-3,-9.5691765E-3,-8.5169785E-3,-7.020473E-3,-1.4807647E-3,-6.092257E-3,-3.0650178E-3,-1.3988748E-3,1.014755E-3,7.4078795E-4,3.5390535E-3,5.179081E-3,9.505644E-3,-7.197726E-3,-5.775487E-3,-3.588109E-3,-5.5802385E-3,-7.5972043E-3,-3.66378E-3,1.3981676E-3,-2.8617037E-3,-1.461277E-4,4.87794E-3,-8.400595E-3,-1.6014992E-3,9.828057E-3,2.6714636E-4,1.0545902E-2,5.5235475E-3,4.5165312E-3,1.0382245E-2,1.3152248E-2,9.487155E-3,1.7925033E-2,1.2630719E-2,1.649938E-2,2.039068E-2,-5.1227254E-3,-2.2712515E-3,1.2363028E-3,-1.7921234E-3,3.4146074E-3,-1.7924585E-3,7.706411E-3,2.6518742E-3,1.786425E-3,-3.4689982E-3,4.0330384E-3,7.1184463E-3,1.0558134E-2,1.3985629E-2,5.9886593E-3,9.885305E-3],"categories":[],"categories_nodes":[],"categories_segments":[],"categories_sizes":[],"default_left":[0,0,0,0,0,0,0,0,0,0,0,0,0,0,0,0,0,0,0,0,0,0,0,0,0,0,0,0,0,0,0,0,0,0,0,0,0,0,0,0,0,0,0,0,0,0,0,0,0,0,0,0,0,0,0,0,0,0,0,0,0,0,0,0,0,0,0,0,0,0,0,0,0,0,0,0,0,0,0,0,0,0,0,0,0,0,0,0,0,0,0,0,0,0,0,0,0,0,0,0,0,0,0,0,0,0,0,0,0,0,0,0,0,0,0,0,0,0,0,0,0,0,0,0,0],"id":9,"left_children":[1,3,5,7,9,11,13,15,17,19,21,23,25,27,29,31,33,35,37,39,41,43,45,47,49,51,53,55,57,59,61,63,65,67,69,71,-1,73,75,77,79,81,83,85,87,89,91,93,95,97,99,101,103,105,107,109,111,113,115,117,119,121,123,-1,-1,-1,-1,-1,-1,-1,-1,-1,-1,-1,-1,-1,-1,-1,-1,-1,-1,-1,-1,-1,-1,-1,-1,-1,-1,-1,-1,-1,-1,-1,-1,-1,-1,-1,-1,-1,-1,-1,-1,-1,-1,-1,-1,-1,-1,-1,-1,-1,-1,-1,-1,-1,-1,-1,-1,-1,-1,-1,-1,-1,-1],"loss_changes":[9.4770703E2,8.1813934E1,1.7962183E2,2.4059021E1,6.99496E1,3.687097E1,1.5464574E2,1.6684921E1,2.1743774E0,2.2952843E1,1.38658905E1,3.3917148E0,1.4497742E1,2.8139435E1,3.415335E1,5.5130615E0,3.3253212E0,3.3519745E-1,1.3169861E0,3.3002262E0,5.63068E0,4.591324E0,3.7195053E0,1.3555908E0,1.42979E0,2.5406494E0,5.462036E0,8.637903E0,8.646757E0,7.7174263E0,1.2611176E1,7.6242065E-1,2.162346E0,2.2147884E0,2.8502483E0,2.9570007E-1,0E0,1.9804382E-1,3.8833618E-1,6.1351633E-1,9.1287583E-1,1.2854056E0,2.855072E0,6.6571045E-1,3.3877563E0,6.1621094E-1,5.378601E0,4.2729428E-1,8.058739E-1,1.4984928E0,5.957837E-1,3.045105E0,1.4936752E0,1.9722748E0,1.0325012E0,1.683939E0,7.3250246E0,3.7430112E0,1.0125713E1,1.8822678E0,4.4367256E0,4.1596375E0,8.209717E0,0E0,0E0,0E0,0E0,0E0,0E0,0E0,0E0,0E0,0E0,0E0,0E0,0E0,0E0,0E0,0E0,0E0,0E0,0E0,0E0,0E0,0E0,0E0,0E0,0E0,0E0,0E0,0E0,0E0,0E0,0E0,0E0,0E0,0E0,0E0,0E0,0E0,0E0,0E0,0E0,0E0,0E0,0E0,0E0,0E0,0E0,0E0,0E0,0E0,0E0,0E0,0E0,0E0,0E0,0E0,0E0,0E0,0E0,0E0,0E0,0E0,0E0],"parents":[2147483647,0,0,1,1,2,2,3,3,4,4,5,5,6,6,7,7,8,8,9,9,10,10,11,11,12,12,13,13,14,14,15,15,16,16,17,17,18,18,19,19,20,20,21,21,22,22,23,23,24,24,25,25,26,26,27,27,28,28,29,29,30,30,31,31,32,32,33,33,34,34,35,35,37,37,38,38,39,39,40,40,41,41,42,42,43,43,44,44,45,45,46,46,47,47,48,48,49,49,50,50,51,51,52,52,53,53,54,54,55,55,56,56,57,57,58,58,59,59,60,60,61,61,62,62],"right_children":[2,4,6,8,10,12,14,16,18,20,22,24,26,28,30,32,34,36,38,40,42,44,46,48,50,52,54,56,58,60,62,64,66,68,70,72,-1,74,76,78,80,82,84,86,88,90,92,94,96,98,100,102,104,106,108,110,112,114,116,118,120,122,124,-1,-1,-1,-1,-1,-1,-1,-1,-1,-1,-1,-1,-1,-1,-1,-1,-1,-1,-1,-1,-1,-1,-1,-1,-1,-1,-1,-1,-1,-1,-1,-1,-1,-1,-1,-1,-1,-1,-1,-1,-1,-1,-1,-1,-1,-1,-1,-1,-1,-1,-1,-1,-1,-1,-1,-1,-1,-1,-1,-1,-1,-1],"split_conditions":[7.2077994E0,5.2077994E0,2E0,4E0,2E0,2.7613756E-1,9.517799E0,3.0451256E-1,3.5077994E0,2.6136255E-1,3.6823338E-1,2.2162506E-1,8.4978E0,4.2276427E-1,4.1138756E-1,1.3274172E-1,2E0,1.1036515E1,2.6477507E-1,1.7285421E-1,6.1677995E0,1.6709588E-1,3E0,2.2486018E-1,7E0,1.2246469E-16,4.6613756E-1,2.1273339E-1,3E0,2.1462089E-1,6.766421E1,8.087089E-2,2E0,5.8038753E-1,3E0,2.3159172E-1,1.1733867E-2,1.1427089E-1,5.440584E-1,1.0375422E-1,7E0,1.9805731E2,4.6867922E-1,6.1077995E0,4E0,1.3179588E-1,4E0,5E0,1.7285421E-1,2E0,6.866421E1,7.436515E0,8.566421E1,2.0725951E0,9.216959E-1,1.2830006E-1,4E0,7.266421E1,4E0,8.366421E1,1.08578E1,1.18578E1,3E0,-8.575726E-3,-7.2868513E-3,-4.8205093E-3,-6.3785906E-3,-1.658498E-3,1.3042589E-2,-5.400005E-3,-2.5971723E-3,-1.02733765E-2,-9.1992E-3,-9.5691765E-3,-8.5169785E-3,-7.020473E-3,-1.4807647E-3,-6.092257E-3,-3.0650178E-3,-1.3988748E-3,1.014755E-3,7.4078795E-4,3.5390535E-3,5.179081E-3,9.505644E-3,-7.197726E-3,-5.775487E-3,-3.588109E-3,-5.5802385E-3,-7.5972043E-3,-3.66378E-3,1.3981676E-3,-2.8617037E-3,-1.461277E-4,4.87794E-3,-8.400595E-3,-1.6014992E-3,9.828057E-3,2.6714636E-4,1.0545902E-2,5.5235475E-3,4.5165312E-3,1.0382245E-2,1.3152248E-2,9.487155E-3,1.7925033E-2,1.2630719E-2,1.649938E-2,2.039068E-2,-5.1227254E-3,-2.2712515E-3,1.2363028E-3,-1.7921234E-3,3.4146074E-3,-1.7924585E-3,7.706411E-3,2.6518742E-3,1.786425E-3,-3.4689982E-3,4.0330384E-3,7.1184463E-3,1.0558134E-2,1.3985629E-2,5.9886593E-3,9.885305E-3],"split_indices":[6,6,1,1,1,16,6,16,6,16,16,16,6,16,16,16,1,9,16,16,6,16,1,17,12,20,16,16,1,16,3,16,1,16,1,16,0,16,16,16,12,8,16,6,1,15,1,13,16,12,3,9,3,4,15,16,1,3,1,3,6,6,1,0,0,0,0,0,0,0,0,0,0,0,0,0,0,0,0,0,0,0,0,0,0,0,0,0,0,0,0,0,0,0,0,0,0,0,0,0,0,0,0,0,0,0,0,0,0,0,0,0,0,0,0,0,0,0,0,0,0,0,0,0,0],"split_type":[0,0,0,0,0,0,0,0,0,0,0,0,0,0,0,0,0,0,0,0,0,0,0,0,0,0,0,0,0,0,0,0,0,0,0,0,0,0,0,0,0,0,0,0,0,0,0,0,0,0,0,0,0,0,0,0,0,0,0,0,0,0,0,0,0,0,0,0,0,0,0,0,0,0,0,0,0,0,0,0,0,0,0,0,0,0,0,0,0,0,0,0,0,0,0,0,0,0,0,0,0,0,0,0,0,0,0,0,0,0,0,0,0,0,0,0,0,0,0,0,0,0,0,0,0],"sum_hessian":[8.9631E4,4.9814E4,3.9817E4,2.6861E4,2.2953E4,8.055E3,3.1762E4,1.9625E4,7.236E3,6.5E3,1.6453E4,8.37E2,7.218E3,1.706E4,1.4702E4,1.416E4,5.465E3,3.205E3,4.031E3,2.682E3,3.818E3,1.2386E4,4.067E3,3.59E2,4.78E2,2.738E3,4.48E3,1.1673E4,5.387E3,5.471E3,9.231E3,4.986E3,9.174E3,1.822E3,3.643E3,3.204E3,1E0,2.619E3,1.412E3,1.102E3,1.58E3,1.667E3,2.151E3,3.382E3,9.004E3,1.102E3,2.965E3,1.71E2,1.88E2,2.33E2,2.45E2,1.287E3,1.451E3,1.837E3,2.643E3,2.748E3,8.925E3,1.405E3,3.982E3,7.76E2,4.695E3,3.735E3,5.496E3,1.932E3,3.054E3,3.885E3,5.289E3,1.797E3,2.5E1,1.909E3,1.734E3,2.095E3,1.109E3,7.08E2,1.911E3,1.379E3,3.3E1,2.07E2,8.95E2,7.13E2,8.67E2,7.32E2,9.35E2,1.653E3,4.98E2,1.777E3,1.605E3,5.509E3,3.495E3,1.11E2,9.91E2,1.529E3,1.436E3,9.7E1,7.4E1,6.8E1,1.2E2,5.2E1,1.81E2,1.15E2,1.3E2,2.87E2,1E3,1.054E3,3.97E2,2.04E2,1.633E3,2.439E3,2.04E2,6.93E2,2.055E3,5.911E3,3.014E3,6.06E2,7.99E2,1.862E3,2.12E3,5.25E2,2.51E2,2.515E3,2.18E3,2.239E3,1.496E3,2.43E3,3.066E3],"tree_param":{"num_deleted":"0","num_feature":"22","num_nodes":"125","size_leaf_vector":"1"}},{"base_weights":[1.566605E-4,-8.580959E-2,1.10707276E-1,-1.226148E-1,-4.3727845E-2,2.3937401E-1,7.8365386E-2,-1.0543977E-1,-1.6949102E-1,3.9949413E-2,-7.643924E-2,5.1759455E-2,2.6005092E-1,9.082558E-3,1.400989E-1,-1.326364E-1,-7.7021815E-2,-1.839299E-1,-1.4995785E-1,-3.6359295E-2,8.508144E-2,-9.9235594E-2,-4.362265E-2,-2.1541718E-2,1.0177669E-1,2.1354903E-1,2.97573E-1,-1.3527903E-2,7.010073E-2,8.0168985E-2,1.7906599E-1,-1.5109766E-1,-1.19873814E-1,-8.963735E-2,-3.3557348E-2,-1.9190031E-1,-1.6863191E-1,-1.5616602E-1,-1.0606046E-1,-7.009501E-2,-4.7233445E-3,3.0431371E-2,1.08680986E-1,-1.23260796E-1,-8.661619E-2,-8.7084875E-2,-2.7412567E-2,2.8672034E-2,-7.656905E-2,1.574719E-1,1.8136373E-2,1.9252387E-1,2.4659081E-1,2.6539627E-1,3.261413E-1,-4.800376E-2,5.3250063E-3,8.882867E-3,9.023845E-2,-2.99698E-2,9.180594E-2,1.341961E-1,2.0499353E-1,-8.200398E-3,-7.083919E-3,-5.765756E-3,-7.764389E-3,-3.2387443E-3,-5.302876E-3,-2.9736916E-3,1.6152516E-3,-9.899961E-3,-9.2581585E-3,-8.498366E-3,4.4573727E-3,-8.934738E-3,-7.534141E-3,3.077478E-3,-5.559107E-3,-5.6457506E-3,-3.006875E-3,1.7484861E-3,-1.2783034E-3,1.6893541E-4,3.3968983E-3,4.58295E-3,8.4477905E-3,-6.5581515E-3,-5.05341E-3,-3.5997403E-3,-5.5467975E-3,-4.926206E-3,-2.1043078E-3,7.6447404E-4,-3.3971684E-3,7.441483E-3,3.2347135E-4,-8.881999E-3,-1.3381055E-3,1.7626641E-2,7.4075125E-3,4.697934E-3,-2.3677738E-3,1.10979285E-2,7.6404326E-3,1.3536453E-2,1.0508872E-2,1.2555266E-2,1.6368475E-2,1.5056478E-2,1.6799817E-2,-3.0583346E-3,1.0175159E-3,2.4982044E-3,-2.134911E-3,3.3954715E-3,-1.8456554E-3,7.013557E-3,2.1951373E-3,-5.537416E-3,-1.974008E-4,5.3137667E-3,9.800344E-4,3.4991216E-3,7.999604E-3,8.285823E-3,1.19539825E-2],"categories":[],"categories_nodes":[],"categories_segments":[],"categories_sizes":[],"default_left":[0,0,0,0,0,0,0,0,0,0,0,0,0,0,0,0,0,0,0,0,0,0,0,0,0,0,0,0,0,0,0,0,0,0,0,0,0,0,0,0,0,0,0,0,0,0,0,0,0,0,0,0,0,0,0,0,0,0,0,0,0,0,0,0,0,0,0,0,0,0,0,0,0,0,0,0,0,0,0,0,0,0,0,0,0,0,0,0,0,0,0,0,0,0,0,0,0,0,0,0,0,0,0,0,0,0,0,0,0,0,0,0,0,0,0,0,0,0,0,0,0,0,0,0,0,0,0],"id":10,"left_children":[1,3,5,7,9,11,13,15,17,19,21,23,25,27,29,31,33,35,37,39,41,43,45,47,49,51,53,55,57,59,61,63,65,67,69,71,73,75,77,79,81,83,85,87,89,91,93,95,97,99,101,103,105,107,109,111,113,115,117,119,121,123,125,-1,-1,-1,-1,-1,-1,-1,-1,-1,-1,-1,-1,-1,-1,-1,-1,-1,-1,-1,-1,-1,-1,-1,-1,-1,-1,-1,-1,-1,-1,-1,-1,-1,-1,-1,-1,-1,-1,-1,-1,-1,-1,-1,-1,-1,-1,-1,-1,-1,-1,-1,-1,-1,-1,-1,-1,-1,-1,-1,-1,-1,-1,-1,-1],"loss_changes":[8.5068823E2,7.798581E1,1.6292624E2,2.1607971E1,6.431356E1,3.0497162E1,1.3384117E2,1.5185211E1,2.003357E0,2.2747051E1,1.2632561E1,2.8692565E0,1.2296936E1,2.0345253E1,3.8630066E1,2.3486328E0,5.270256E0,4.7195435E-1,8.18985E-1,2.6197953E0,5.3490143E0,3.0111465E0,4.877161E0,8.8087034E-1,2.1632838E0,2.1526642E0,3.5150146E0,6.9939346E0,4.914324E0,8.361874E0,1.1637543E1,4.7558594E-1,9.4169617E-1,3.0357857E0,3.6974058E0,7.476807E-2,5.0569534E-1,3.0462646E-1,3.356266E-1,4.9974966E-1,1.0499251E0,1.271131E0,2.9578552E0,5.882683E-1,2.3168564E0,9.6410084E-1,8.734393E0,4.4456178E-1,7.604192E-1,4.550748E-1,9.330434E-1,2.2339478E0,1.0224533E0,1.5544891E0,4.0930176E-1,3.4238558E0,1.4915942E1,2.6732473E0,6.948744E0,1.3112116E0,6.160988E0,6.0762787E0,8.46582E0,0E0,0E0,0E0,0E0,0E0,0E0,0E0,0E0,0E0,0E0,0E0,0E0,0E0,0E0,0E0,0E0,0E0,0E0,0E0,0E0,0E0,0E0,0E0,0E0,0E0,0E0,0E0,0E0,0E0,0E0,0E0,0E0,0E0,0E0,0E0,0E0,0E0,0E0,0E0,0E0,0E0,0E0,0E0,0E0,0E0,0E0,0E0,0E0,0E0,0E0,0E0,0E0,0E0,0E0,0E0,0E0,0E0,0E0,0E0,0E0,0E0,0E0,0E0,0E0],"parents":[2147483647,0,0,1,1,2,2,3,3,4,4,5,5,6,6,7,7,8,8,9,9,10,10,11,11,12,12,13,13,14,14,15,15,16,16,17,17,18,18,19,19,20,20,21,21,22,22,23,23,24,24,25,25,26,26,27,27,28,28,29,29,30,30,31,31,32,32,33,33,34,34,35,35,36,36,37,37,38,38,39,39,40,40,41,41,42,42,43,43,44,44,45,45,46,46,47,47,48,48,49,49,50,50,51,51,52,52,53,53,54,54,55,55,56,56,57,57,58,58,59,59,60,60,61,61,62,62],"right_children":[2,4,6,8,10,12,14,16,18,20,22,24,26,28,30,32,34,36,38,40,42,44,46,48,50,52,54,56,58,60,62,64,66,68,70,72,74,76,78,80,82,84,86,88,90,92,94,96,98,100,102,104,106,108,110,112,114,116,118,120,122,124,126,-1,-1,-1,-1,-1,-1,-1,-1,-1,-1,-1,-1,-1,-1,-1,-1,-1,-1,-1,-1,-1,-1,-1,-1,-1,-1,-1,-1,-1,-1,-1,-1,-1,-1,-1,-1,-1,-1,-1,-1,-1,-1,-1,-1,-1,-1,-1,-1,-1,-1,-1,-1,-1,-1,-1,-1,-1,-1,-1,-1,-1,-1,-1,-1],"split_conditions":[7.2577996E0,5.2077994E0,2E0,4E0,2E0,2.7613756E-1,9.207799E0,2.2162506E-1,3.9877994E0,2.4902922E-1,3.0271673E-1,2.2162506E-1,8.7878E0,4.4195005E-1,4.1138756E-1,1.1914172E-1,4.0715006E-1,2.3684588E-1,3.6264172E-1,1.7689589E-1,5.736515E0,1.6709588E-1,3E0,2.3270005E-1,1.851959E-1,4.6056256E-1,5.024351E-1,3E0,3E0,1.8676671E-1,3E0,7.761255E-2,3.728959E-1,2E0,3.6372597E1,2.8177993E0,7.1472595E1,1.1687089E-1,1E0,1.0375422E-1,9.5395885E-2,3.8972595E1,4.6867922E-1,6.5977993E0,4E0,1.9E1,4E0,4E0,1.7689589E-1,-8.027405E0,4E0,3.011959E-1,1.3E1,3.060573E2,9.717799E0,1.1136515E1,4E0,7.366421E1,4E0,1.2120422E-1,4E0,1.1036515E1,1.08578E1,-8.200398E-3,-7.083919E-3,-5.765756E-3,-7.764389E-3,-3.2387443E-3,-5.302876E-3,-2.9736916E-3,1.6152516E-3,-9.899961E-3,-9.2581585E-3,-8.498366E-3,4.4573727E-3,-8.934738E-3,-7.534141E-3,3.077478E-3,-5.559107E-3,-5.6457506E-3,-3.006875E-3,1.7484861E-3,-1.2783034E-3,1.6893541E-4,3.3968983E-3,4.58295E-3,8.4477905E-3,-6.5581515E-3,-5.05341E-3,-3.5997403E-3,-5.5467975E-3,-4.926206E-3,-2.1043078E-3,7.6447404E-4,-3.3971684E-3,7.441483E-3,3.2347135E-4,-8.881999E-3,-1.3381055E-3,1.7626641E-2,7.4075125E-3,4.697934E-3,-2.3677738E-3,1.10979285E-2,7.6404326E-3,1.3536453E-2,1.0508872E-2,1.2555266E-2,1.6368475E-2,1.5056478E-2,1.6799817E-2,-3.0583346E-3,1.0175159E-3,2.4982044E-3,-2.134911E-3,3.3954715E-3,-1.8456554E-3,7.013557E-3,2.1951373E-3,-5.537416E-3,-1.974008E-4,5.3137667E-3,9.800344E-4,3.4991216E-3,7.999604E-3,8.285823E-3,1.19539825E-2],"split_indices":[6,6,1,1,1,16,6,16,6,16,16,16,6,16,16,16,16,16,16,16,9,16,1,17,14,16,16,1,1,16,1,16,14,1,4,6,4,16,10,16,14,4,16,6,1,10,1,11,16,4,13,14,10,8,6,9,1,3,1,16,1,9,6,0,0,0,0,0,0,0,0,0,0,0,0,0,0,0,0,0,0,0,0,0,0,0,0,0,0,0,0,0,0,0,0,0,0,0,0,0,0,0,0,0,0,0,0,0,0,0,0,0,0,0,0,0,0,0,0,0,0,0,0,0,0,0,0],"split_type":[0,0,0,0,0,0,0,0,0,0,0,0,0,0,0,0,0,0,0,0,0,0,0,0,0,0,0,0,0,0,0,0,0,0,0,0,0,0,0,0,0,0,0,0,0,0,0,0,0,0,0,0,0,0,0,0,0,0,0,0,0,0,0,0,0,0,0,0,0,0,0,0,0,0,0,0,0,0,0,0,0,0,0,0,0,0,0,0,0,0,0,0,0,0,0,0,0,0,0,0,0,0,0,0,0,0,0,0,0,0,0,0,0,0,0,0,0,0,0,0,0,0,0,0,0,0,0],"sum_hessian":[8.951E4,5.0354E4,3.9156E4,2.686E4,2.3494E4,7.864E3,3.1292E4,1.966E4,7.2E3,6.603E3,1.6891E4,7.81E2,7.083E3,1.4745E4,1.6547E4,1.0044E4,9.616E3,4.135E3,3.065E3,2.454E3,4.149E3,9.966E3,6.925E3,3.17E2,4.64E2,3.166E3,3.917E3,1.0759E4,3.986E3,6.521E3,1.0026E4,4.101E3,5.943E3,7.452E3,2.164E3,2.711E3,1.424E3,2.683E3,3.82E2,1.187E3,1.267E3,1.252E3,2.897E3,3.429E3,6.537E3,1.88E3,5.045E3,1.66E2,1.51E2,2.78E2,1.86E2,1.939E3,1.227E3,1.847E3,2.07E3,3.803E3,6.956E3,9.87E2,2.999E3,6.23E2,5.898E3,3.674E3,6.352E3,1.723E3,2.378E3,5.269E3,6.74E2,2.966E3,4.486E3,1.553E3,6.11E2,1.408E3,1.303E3,1.417E3,7E0,5.19E2,2.164E3,1.1E1,3.71E2,2.22E2,9.65E2,4.36E2,8.31E2,7.28E2,5.24E2,2.261E3,6.36E2,2.525E3,9.04E2,4.085E3,2.452E3,1.498E3,3.82E2,2.457E3,2.588E3,2.5E1,1.41E2,4.9E1,1.02E2,1.1E1,2.67E2,8.6E1,1E2,1.111E3,8.28E2,7.34E2,4.93E2,1.505E3,3.42E2,5.94E2,1.476E3,3.189E3,6.14E2,3.605E3,3.351E3,4.31E2,5.56E2,1.441E3,1.558E3,1.51E2,4.72E2,4.913E3,9.85E2,1.054E3,2.62E3,2.954E3,3.398E3],"tree_param":{"num_deleted":"0","num_feature":"22","num_nodes":"127","size_leaf_vector":"1"}},{"base_weights":[6.932275E-5,-7.008704E-2,1.2290076E-1,-1.0435535E-1,-1.0446635E-2,2.4556635E-1,9.3320124E-2,-1.23776935E-1,-6.460344E-2,9.090822E-2,-4.7241703E-2,8.27049E-2,2.6236227E-1,4.3822132E-2,1.5358359E-1,-1.09116085E-1,-1.6068986E-1,-7.427724E-3,-8.67405E-2,4.075616E-3,1.3881135E-1,-6.1595574E-2,1.3018534E-2,-6.2052745E-2,1.22062996E-1,2.3752432E-1,3.0874857E-1,-3.689817E-3,7.762621E-2,9.940894E-2,1.8601908E-1,-1.3325211E-1,-9.2226245E-2,-1.7952101E-1,-1.4422458E-1,-4.2021908E-2,3.399375E-2,-7.0251755E-2,-1.2153048E-1,-5.2997474E-2,3.690767E-2,9.2972405E-2,1.6428578E-1,-9.534766E-2,-4.849563E-2,-4.4885013E-2,3.312164E-2,5.9623472E-2,-1.4448841E-1,1.6426913E-1,1.7675644E-2,2.5897706E-1,2.0488851E-1,2.7200451E-1,3.1879234E-1,-4.177529E-2,1.2860822E-2,2.4192262E-2,9.9253386E-2,-1.9907951E-3,1.1028368E-1,1.418727E-1,2.1320336E-1,-7.5144097E-3,-6.1699054E-3,-3.5965056E-3,-5.376244E-3,-9.246769E-3,-8.4259715E-3,-7.663358E-3,-6.5568388E-3,-2.265115E-3,1.19250035E-2,-1.0576971E-5,2.7589595E-3,-4.927847E-3,-2.0085066E-3,-7.587661E-3,-4.8786267E-3,-3.2404717E-3,5.076848E-4,3.838794E-3,5.6466105E-4,4.139757E-3,8.911258E-3,8.982067E-3,5.607516E-3,-5.8331825E-3,-4.1276687E-3,-1.681421E-3,-3.6653758E-3,-3.3831962E-3,4.880461E-4,3.6869433E-3,-4.8565256E-4,9.677091E-3,5.0697777E-6,-1.8438557E-3,-8.628507E-3,1.6842615E-2,7.6926337E-3,4.606839E-3,-2.4378763E-3,1.8800436E-2,1.2571457E-2,7.6408805E-3,1.1829375E-2,1.2239271E-2,1.4929573E-2,1.643916E-2,1.432122E-2,-4.494867E-3,-1.3624916E-3,1.546644E-3,-1.6425474E-3,-2.5097965E-4,3.6706906E-3,7.6969825E-3,2.5343439E-3,1.4854461E-3,-3.5251745E-3,4.1661407E-3,7.007512E-3,4.2942953E-3,8.26657E-3,9.388738E-3,1.226897E-2],"categories":[],"categories_nodes":[],"categories_segments":[],"categories_sizes":[],"default_left":[0,0,0,0,0,0,0,0,0,0,0,0,0,0,0,0,0,0,0,0,0,0,0,0,0,0,0,0,0,0,0,0,0,0,0,0,0,0,0,0,0,0,0,0,0,0,0,0,0,0,0,0,0,0,0,0,0,0,0,0,0,0,0,0,0,0,0,0,0,0,0,0,0,0,0,0,0,0,0,0,0,0,0,0,0,0,0,0,0,0,0,0,0,0,0,0,0,0,0,0,0,0,0,0,0,0,0,0,0,0,0,0,0,0,0,0,0,0,0,0,0,0,0,0,0,0,0],"id":11,"left_children":[1,3,5,7,9,11,13,15,17,19,21,23,25,27,29,31,33,35,37,39,41,43,45,47,49,51,53,55,57,59,61,63,65,67,69,71,73,75,77,79,81,83,85,87,89,91,93,95,97,99,101,103,105,107,109,111,113,115,117,119,121,123,125,-1,-1,-1,-1,-1,-1,-1,-1,-1,-1,-1,-1,-1,-1,-1,-1,-1,-1,-1,-1,-1,-1,-1,-1,-1,-1,-1,-1,-1,-1,-1,-1,-1,-1,-1,-1,-1,-1,-1,-1,-1,-1,-1,-1,-1,-1,-1,-1,-1,-1,-1,-1,-1,-1,-1,-1,-1,-1,-1,-1,-1,-1,-1,-1],"loss_changes":[7.6943964E2,1.161467E2,1.1775537E2,2.7856659E1,7.734747E1,1.7227814E1,7.8008575E1,1.31032715E1,1.4995388E1,2.2976803E1,1.3162151E1,3.3747292E0,6.5122986E0,2.306546E1,2.0705719E1,7.062958E0,2.1104279E0,4.7416005E0,4.8909454E0,3.6840253E0,4.141815E0,5.4289627E0,3.4097996E0,1.2824833E0,2.0457878E0,2.5563202E0,6.476898E-1,3.7642908E0,9.694447E0,4.8730316E0,8.8216095E0,1.1805649E0,3.163742E0,1.6004181E-1,4.155426E-1,1.6699648E0,1.0913407E0,4.9319916E0,1.9727783E0,5.362425E-1,1.273593E0,1.0906181E0,1.8107567E0,9.271717E-1,3.2639961E0,9.4046533E-1,3.7830985E0,4.1447747E-1,2.2330129E-1,5.4321384E-1,6.722953E-1,1.8885651E0,2.4116783E0,2.4098587E-1,4.0934753E-1,1.262032E0,3.4400945E0,3.478535E0,1.585601E1,9.33811E-1,3.2019844E0,3.6816444E0,3.687317E0,0E0,0E0,0E0,0E0,0E0,0E0,0E0,0E0,0E0,0E0,0E0,0E0,0E0,0E0,0E0,0E0,0E0,0E0,0E0,0E0,0E0,0E0,0E0,0E0,0E0,0E0,0E0,0E0,0E0,0E0,0E0,0E0,0E0,0E0,0E0,0E0,0E0,0E0,0E0,0E0,0E0,0E0,0E0,0E0,0E0,0E0,0E0,0E0,0E0,0E0,0E0,0E0,0E0,0E0,0E0,0E0,0E0,0E0,0E0,0E0,0E0,0E0,0E0,0E0],"parents":[2147483647,0,0,1,1,2,2,3,3,4,4,5,5,6,6,7,7,8,8,9,9,10,10,11,11,12,12,13,13,14,14,15,15,16,16,17,17,18,18,19,19,20,20,21,21,22,22,23,23,24,24,25,25,26,26,27,27,28,28,29,29,30,30,31,31,32,32,33,33,34,34,35,35,36,36,37,37,38,38,39,39,40,40,41,41,42,42,43,43,44,44,45,45,46,46,47,47,48,48,49,49,50,50,51,51,52,52,53,53,54,54,55,55,56,56,57,57,58,58,59,59,60,60,61,61,62,62],"right_children":[2,4,6,8,10,12,14,16,18,20,22,24,26,28,30,32,34,36,38,40,42,44,46,48,50,52,54,56,58,60,62,64,66,68,70,72,74,76,78,80,82,84,86,88,90,92,94,96,98,100,102,104,106,108,110,112,114,116,118,120,122,124,126,-1,-1,-1,-1,-1,-1,-1,-1,-1,-1,-1,-1,-1,-1,-1,-1,-1,-1,-1,-1,-1,-1,-1,-1,-1,-1,-1,-1,-1,-1,-1,-1,-1,-1,-1,-1,-1,-1,-1,-1,-1,-1,-1,-1,-1,-1,-1,-1,-1,-1,-1,-1,-1,-1,-1,-1,-1,-1,-1,-1,-1,-1,-1,-1],"split_conditions":[7.8477993E0,6.0177994E0,2E0,2.875084E-1,2E0,2.946042E-1,1.00278E1,4E0,2E0,2.7919587E-1,4.205667E-1,2.1273339E-1,5.528584E-1,3.3930007E-1,4.2514172E-1,1.4842089E-1,3.9877994E0,4.8877993E0,4E0,1.8676671E-1,6.717799E0,1.9645838E-1,3E0,2.3118278E-1,2.1749589E-1,3.6939588E-1,8.9478E0,2.1103755E-1,3E0,2.0183338E-1,3E0,8.731672E-2,2E0,3.2677994E0,2.0574589E-1,5.8038753E-1,3.513709E-1,3E0,4.467799E0,1E1,1.2549588E-1,5.4039174E-1,1.8E1,1.3047922E-1,4E0,4.39796E1,4E0,7E0,-2.5881904E-1,7.5796003E0,4E0,1.02796E1,4.3440005E-1,1.8E1,-2.2338512E0,1.2352089E-1,4E0,1.0436515E1,4E0,1.7079589E-1,3E0,1.1636515E1,1.18578E1,-7.5144097E-3,-6.1699054E-3,-3.5965056E-3,-5.376244E-3,-9.246769E-3,-8.4259715E-3,-7.663358E-3,-6.5568388E-3,-2.265115E-3,1.19250035E-2,-1.0576971E-5,2.7589595E-3,-4.927847E-3,-2.0085066E-3,-7.587661E-3,-4.8786267E-3,-3.2404717E-3,5.076848E-4,3.838794E-3,5.6466105E-4,4.139757E-3,8.911258E-3,8.982067E-3,5.607516E-3,-5.8331825E-3,-4.1276687E-3,-1.681421E-3,-3.6653758E-3,-3.3831962E-3,4.880461E-4,3.6869433E-3,-4.8565256E-4,9.677091E-3,5.0697777E-6,-1.8438557E-3,-8.628507E-3,1.6842615E-2,7.6926337E-3,4.606839E-3,-2.4378763E-3,1.8800436E-2,1.2571457E-2,7.6408805E-3,1.1829375E-2,1.2239271E-2,1.4929573E-2,1.643916E-2,1.432122E-2,-4.494867E-3,-1.3624916E-3,1.546644E-3,-1.6425474E-3,-2.5097965E-4,3.6706906E-3,7.6969825E-3,2.5343439E-3,1.4854461E-3,-3.5251745E-3,4.1661407E-3,7.007512E-3,4.2942953E-3,8.26657E-3,9.388738E-3,1.226897E-2],"split_indices":[6,6,1,16,1,16,6,1,1,16,16,16,16,16,16,16,6,6,1,16,6,16,1,17,14,14,6,16,1,16,1,16,1,6,16,16,16,1,6,12,14,16,10,16,1,2,1,11,21,2,13,2,16,11,19,16,1,9,1,14,1,9,6,0,0,0,0,0,0,0,0,0,0,0,0,0,0,0,0,0,0,0,0,0,0,0,0,0,0,0,0,0,0,0,0,0,0,0,0,0,0,0,0,0,0,0,0,0,0,0,0,0,0,0,0,0,0,0,0,0,0,0,0,0,0,0,0],"split_type":[0,0,0,0,0,0,0,0,0,0,0,0,0,0,0,0,0,0,0,0,0,0,0,0,0,0,0,0,0,0,0,0,0,0,0,0,0,0,0,0,0,0,0,0,0,0,0,0,0,0,0,0,0,0,0,0,0,0,0,0,0,0,0,0,0,0,0,0,0,0,0,0,0,0,0,0,0,0,0,0,0,0,0,0,0,0,0,0,0,0,0,0,0,0,0,0,0,0,0,0,0,0,0,0,0,0,0,0,0,0,0,0,0,0,0,0,0,0,0,0,0,0,0,0,0,0,0],"sum_hessian":[8.9287E4,5.6829E4,3.2458E4,3.6091E4,2.0738E4,6.305E3,2.6153E4,2.4244E4,1.1847E4,5.523E3,1.5215E4,5.9E2,5.715E3,1.436E4,1.1793E4,1.7355E4,6.889E3,3.307E3,8.54E3,1.964E3,3.559E3,1.2288E4,2.927E3,1.26E2,4.64E2,3.726E3,1.989E3,5.97E3,8.39E3,4.418E3,7.375E3,7.142E3,1.0213E4,3.209E3,3.68E3,1.802E3,1.505E3,5.796E3,2.744E3,7.17E2,1.247E3,1.273E3,2.286E3,3.434E3,8.854E3,7.54E2,2.173E3,5.1E1,7.5E1,3.3E2,1.34E2,2.244E3,1.482E3,4.33E2,1.556E3,1.808E3,4.162E3,2.418E3,5.972E3,4.28E2,3.99E3,2.813E3,4.562E3,2.612E3,4.53E3,4.392E3,5.821E3,2.14E3,1.069E3,2.17E3,1.51E3,1.782E3,2E1,5.76E2,9.29E2,2.985E3,2.811E3,1.211E3,1.533E3,6.04E2,1.13E2,4.87E2,7.6E2,1.139E3,1.34E2,1.764E3,5.22E2,1.285E3,2.149E3,5.538E3,3.316E3,5.32E2,2.22E2,1.115E3,1.058E3,1.5E1,3.6E1,1.6E1,5.9E1,1.7E1,3.13E2,6.3E1,7.1E1,1.33E2,2.111E3,5.63E2,9.19E2,2.19E2,2.14E2,1.182E3,3.74E2,4.18E2,1.39E3,2.983E3,1.179E3,1.518E3,9E2,2.808E3,3.164E3,2.93E2,1.35E2,2.099E3,1.891E3,8.32E2,1.981E3,2.552E3,2.01E3],"tree_param":{"num_deleted":"0","num_feature":"22","num_nodes":"127","size_leaf_vector":"1"}},{"base_weights":[3.7339934E-5,-7.323822E-2,1.0533187E-1,-1.0177627E-1,-2.1835906E-2,2.2188167E-1,7.65375E-2,-8.591628E-2,-1.4517128E-1,6.381787E-2,-5.4699335E-2,5.0791223E-2,2.3786646E-1,2.101786E-2,1.3287082E-1,-1.14810936E-1,-5.9387658E-2,-1.599691E-1,-1.1857605E-1,-3.2483734E-2,9.9025555E-2,-7.098132E-2,-8.042632E-3,-4.926908E-2,9.052264E-2,1.9044635E-1,2.646801E-1,-1.5882198E-2,5.3136148E-2,7.777694E-2,1.656259E-1,-1.327356E-1,-1.0095995E-1,-2.9073942E-2,-7.8565024E-2,-1.6782516E-1,-1.4354318E-1,-1.2052405E-1,8.145133E-2,-7.624494E-2,-1.4257598E-2,6.273657E-2,1.2654242E-1,-9.551853E-2,-5.7530202E-2,-5.58846E-2,8.131328E-3,1.56148365E-2,-1.3077696E-1,1.2255589E-1,-3.1076226E-2,1.5860978E-1,2.1964513E-1,2.2283368E-1,2.8451723E-1,-2.6606927E-2,3.299053E-2,9.467469E-4,7.336097E-2,2.8977187E-2,1.0077548E-1,2.0560935E-1,1.3823844E-1,-7.867537E-3,-6.3733235E-3,-5.6278515E-3,-4.283367E-3,-3.3262044E-3,1.16375115E-4,-4.633961E-3,-1.8621294E-3,-8.777939E-3,-7.9239495E-3,-7.27258E-3,-7.7994185E-4,-6.576307E-3,-4.8772017E-3,1.1021298E-2,-1.2618973E-3,-1.9483132E-3,-4.4515566E-3,4.4394546E-4,-1.7363926E-3,4.3147156E-4,4.1778604E-3,5.434751E-3,8.947503E-3,-5.774612E-3,-4.1735074E-3,-2.2047346E-3,-3.942919E-3,-1.1739174E-3,-4.55599E-3,2.2090182E-3,-1.4126556E-3,3.6638535E-3,-3.1262634E-3,1.0335211E-3,-7.2894054E-3,-1.9037992E-3,6.6916323E-3,8.751228E-4,-7.940067E-3,4.015737E-3,9.1640325E-3,1.1859564E-2,8.149962E-3,1.5264168E-2,1.0354622E-2,1.1475884E-2,1.4659121E-2,-2.7704267E-3,-3.84064E-4,4.240371E-3,-1.1251555E-4,1.8361151E-3,-2.9853934E-3,6.365757E-3,1.3823829E-3,2.6271646E-3,-1.7496139E-3,3.2232732E-3,6.6407854E-3,9.040365E-3,1.21025555E-2,6.0105505E-3,1.0305534E-2],"categories":[],"categories_nodes":[],"categories_segments":[],"categories_sizes":[],"default_left":[0,0,0,0,0,0,0,0,0,0,0,0,0,0,0,0,0,0,0,0,0,0,0,0,0,0,0,0,0,0,0,0,0,0,0,0,0,0,0,0,0,0,0,0,0,0,0,0,0,0,0,0,0,0,0,0,0,0,0,0,0,0,0,0,0,0,0,0,0,0,0,0,0,0,0,0,0,0,0,0,0,0,0,0,0,0,0,0,0,0,0,0,0,0,0,0,0,0,0,0,0,0,0,0,0,0,0,0,0,0,0,0,0,0,0,0,0,0,0,0,0,0,0,0,0,0,0],"id":12,"left_children":[1,3,5,7,9,11,13,15,17,19,21,23,25,27,29,31,33,35,37,39,41,43,45,47,49,51,53,55,57,59,61,63,65,67,69,71,73,75,77,79,81,83,85,87,89,91,93,95,97,99,101,103,105,107,109,111,113,115,117,119,121,123,125,-1,-1,-1,-1,-1,-1,-1,-1,-1,-1,-1,-1,-1,-1,-1,-1,-1,-1,-1,-1,-1,-1,-1,-1,-1,-1,-1,-1,-1,-1,-1,-1,-1,-1,-1,-1,-1,-1,-1,-1,-1,-1,-1,-1,-1,-1,-1,-1,-1,-1,-1,-1,-1,-1,-1,-1,-1,-1,-1,-1,-1,-1,-1,-1],"loss_changes":[6.9174225E2,7.7548035E1,1.2344943E2,2.3383026E1,5.3131477E1,1.9919464E1,9.2270996E1,1.9077606E1,3.5611725E0,1.7749388E1,1.03619995E1,2.4851952E0,8.424164E0,1.761242E1,2.6413727E1,2.9450378E0,7.544636E0,7.297821E-1,1.2785301E0,1.1171451E0,3.819542E0,3.3320007E0,2.7319474E0,9.434042E-1,1.744966E0,2.2064056E0,3.4687195E0,3.6258764E0,8.386047E0,6.1272125E0,1.0027359E1,6.5322876E-1,1.1832123E0,5.9177294E0,4.633827E0,2.5739288E-1,4.6092606E-1,8.0254364E-1,4.8003036E-1,1.9291139E-1,4.696561E-1,1.8637109E0,2.0186577E0,8.5165024E-1,1.8688717E0,1.0163829E0,3.4626238E0,4.5515493E-1,1.8261182E-1,6.4633465E-1,5.8602285E-1,2.22015E0,1.2087021E0,1.7187347E0,1.3067017E0,3.0913196E0,2.273649E0,4.819487E0,1.4119223E1,2.6414905E0,4.309906E0,3.3284302E0,6.6473007E0,0E0,0E0,0E0,0E0,0E0,0E0,0E0,0E0,0E0,0E0,0E0,0E0,0E0,0E0,0E0,0E0,0E0,0E0,0E0,0E0,0E0,0E0,0E0,0E0,0E0,0E0,0E0,0E0,0E0,0E0,0E0,0E0,0E0,0E0,0E0,0E0,0E0,0E0,0E0,0E0,0E0,0E0,0E0,0E0,0E0,0E0,0E0,0E0,0E0,0E0,0E0,0E0,0E0,0E0,0E0,0E0,0E0,0E0,0E0,0E0,0E0,0E0,0E0,0E0],"parents":[2147483647,0,0,1,1,2,2,3,3,4,4,5,5,6,6,7,7,8,8,9,9,10,10,11,11,12,12,13,13,14,14,15,15,16,16,17,17,18,18,19,19,20,20,21,21,22,22,23,23,24,24,25,25,26,26,27,27,28,28,29,29,30,30,31,31,32,32,33,33,34,34,35,35,36,36,37,37,38,38,39,39,40,40,41,41,42,42,43,43,44,44,45,45,46,46,47,47,48,48,49,49,50,50,51,51,52,52,53,53,54,54,55,55,56,56,57,57,58,58,59,59,60,60,61,61,62,62],"right_children":[2,4,6,8,10,12,14,16,18,20,22,24,26,28,30,32,34,36,38,40,42,44,46,48,50,52,54,56,58,60,62,64,66,68,70,72,74,76,78,80,82,84,86,88,90,92,94,96,98,100,102,104,106,108,110,112,114,116,118,120,122,124,126,-1,-1,-1,-1,-1,-1,-1,-1,-1,-1,-1,-1,-1,-1,-1,-1,-1,-1,-1,-1,-1,-1,-1,-1,-1,-1,-1,-1,-1,-1,-1,-1,-1,-1,-1,-1,-1,-1,-1,-1,-1,-1,-1,-1,-1,-1,-1,-1,-1,-1,-1,-1,-1,-1,-1,-1,-1,-1,-1,-1,-1,-1,-1,-1],"split_conditions":[7.4777994E0,5.8377995E0,2E0,4E0,2E0,2.7613756E-1,9.517799E0,2.1789588E-1,4.7077994E0,2.3159172E-1,3.7629172E-1,2.0368755E-1,8.637799E0,3.428709E-1,4.1138756E-1,1.2587088E-1,2E0,2.5259173E-1,5.440584E-1,1.4153755E-1,6.836515E0,2.0183338E-1,3E0,2.4189886E-1,2.771959E-1,1.2246469E-16,4.368542E-1,1.1136515E1,3E0,2.7166256E-1,6.766421E1,5.6008387E-2,4.467799E0,4.3377995E0,4.0260422E-1,3.4177995E0,6.87726E1,2.911459E-1,1.2246469E-16,3.0395886E-2,2.2322506E-1,-2.5881904E-1,4.6613756E-1,1.3047922E-1,4E0,1.2844E4,4E0,5.8572594E1,2.448E3,3.654E3,1.0936515E1,7.736515E0,8.666421E1,7.2725954E0,2.776E3,3E0,4.3672596E1,1.6453E4,4E0,8.366421E1,3E0,1.18578E1,6.453751E-1,-7.867537E-3,-6.3733235E-3,-5.6278515E-3,-4.283367E-3,-3.3262044E-3,1.16375115E-4,-4.633961E-3,-1.8621294E-3,-8.777939E-3,-7.9239495E-3,-7.27258E-3,-7.7994185E-4,-6.576307E-3,-4.8772017E-3,1.1021298E-2,-1.2618973E-3,-1.9483132E-3,-4.4515566E-3,4.4394546E-4,-1.7363926E-3,4.3147156E-4,4.1778604E-3,5.434751E-3,8.947503E-3,-5.774612E-3,-4.1735074E-3,-2.2047346E-3,-3.942919E-3,-1.1739174E-3,-4.55599E-3,2.2090182E-3,-1.4126556E-3,3.6638535E-3,-3.1262634E-3,1.0335211E-3,-7.2894054E-3,-1.9037992E-3,6.6916323E-3,8.751228E-4,-7.940067E-3,4.015737E-3,9.1640325E-3,1.1859564E-2,8.149962E-3,1.5264168E-2,1.0354622E-2,1.1475884E-2,1.4659121E-2,-2.7704267E-3,-3.84064E-4,4.240371E-3,-1.1251555E-4,1.8361151E-3,-2.9853934E-3,6.365757E-3,1.3823829E-3,2.6271646E-3,-1.7496139E-3,3.2232732E-3,6.6407854E-3,9.040365E-3,1.21025555E-2,6.0105505E-3,1.0305534E-2],"split_indices":[6,6,1,1,1,16,6,16,6,16,16,16,6,16,16,16,1,16,16,16,9,16,1,17,14,20,16,9,1,16,3,16,6,6,16,6,4,16,20,14,17,20,16,16,1,0,1,4,0,0,9,9,3,4,0,1,4,0,1,3,1,6,16,0,0,0,0,0,0,0,0,0,0,0,0,0,0,0,0,0,0,0,0,0,0,0,0,0,0,0,0,0,0,0,0,0,0,0,0,0,0,0,0,0,0,0,0,0,0,0,0,0,0,0,0,0,0,0,0,0,0,0,0,0,0,0,0],"split_type":[0,0,0,0,0,0,0,0,0,0,0,0,0,0,0,0,0,0,0,0,0,0,0,0,0,0,0,0,0,0,0,0,0,0,0,0,0,0,0,0,0,0,0,0,0,0,0,0,0,0,0,0,0,0,0,0,0,0,0,0,0,0,0,0,0,0,0,0,0,0,0,0,0,0,0,0,0,0,0,0,0,0,0,0,0,0,0,0,0,0,0,0,0,0,0,0,0,0,0,0,0,0,0,0,0,0,0,0,0,0,0,0,0,0,0,0,0,0,0,0,0,0,0,0,0,0,0],"sum_hessian":[8.9654E4,5.2865E4,3.6789E4,3.3992E4,1.8873E4,7.287E3,2.9502E4,2.4896E4,9.096E3,5.233E3,1.364E4,6.23E2,6.664E3,1.4859E4,1.4643E4,1.1915E4,1.2981E4,5.841E3,3.255E3,1.401E3,3.832E3,1.0111E4,3.529E3,1.77E2,4.46E2,2.41E3,4.254E3,6.915E3,7.944E3,5.461E3,9.182E3,5.19E3,6.725E3,5.031E3,7.95E3,3.945E3,1.896E3,3.224E3,3.1E1,4.11E2,9.9E2,1.654E3,2.178E3,3.578E3,6.533E3,8.91E2,2.638E3,9.9E1,7.8E1,3.53E2,9.3E1,1.156E3,1.254E3,1.372E3,2.882E3,5.671E3,1.244E3,2.219E3,5.725E3,1.75E3,3.711E3,3.73E3,5.452E3,9.1E2,4.28E3,3.821E3,2.904E3,2.294E3,2.737E3,5.925E3,2.025E3,2.149E3,1.796E3,1.868E3,2.8E1,2.177E3,